tree
version=v4
num_class=1
num_tree_per_iteration=1
label_index=0
max_feature_idx=6
objective=poisson
feature_names=VehAge DrivAge logDensity VehPower PolicyRegion VehBrand VehGas
feature_infos=[0:20] [18:85] [0:10.203592144986466] [4:12] [1:6] [1:4] [1:2]
tree_sizes=3382 3424 3444 3448 3475 3490 3423 3432 3443 3484 3469 3465 3435 3464 3471 3509 3497 3399 3488 3482 3481 3456 3507 3481 3511 3512 3510 3476 3489 3511 3521 3537 3521 3508 3508 3520 3535 3496 3499 3515 3555 3531 3463 3472 3484 3530 3526 3528 3506 3517 3544 3535 3536 3545 3514 3524 3506 3527 3513 3516 3515 3500 3543 3515 3467 3538 3510 3503 3499 3556 3437 3561 3528 3448 3474 3507 3446 3456 3492 3518 3524 3466 3519 3523 3468 3482 3474 3502 3492 3518 3434 3399 3480 3467 3537 3471 3450 3493 3520 3410 3502 3475 3433 3490 3433 3497 3541 3492 3431 3481 3538 3508 3506 3468 3439 3520 3417 3435 3383 3502 3417 3440 3490 3437 3449 3503 3430 3412 3501 3538 3455 3448 3412 3471 3403 3401 3392 3485 3559 3372 3469 3504 3453 3461 3398 3395 3526 3450 3417 3457 3484 3301 3497 3449 3448 3393 3413 3402 3390 3440 3456 3481 3358 3473 3464 3361 3469 3426 3433 3465 3382 3376 3350 3331 3516 3423 3444 3475 3383 3458 3442 3405 3481 3459 3419 3397 3404 3337 3286 3490 3375 3476 3429 3382 3355 3360 3419 3427 3333 3426 3291 3488 3385 3380 3444 3385 3297 3436 3199 3398 3411 3470 3336 3318 3329 3385 3349 3278 3398 3467 3392 3401 3412 3371 3472 3347 3448 3347 3343 3375 3440 3349 3289 3286 3345 3326 3435 3436 3353 3313 3307 3354 3491 3386 3440 3385 3339 3420 3203 3338 3231 3375 3238 3341 3396 3274 3276 3283 3294 3226 3384 3340 3430 3406 3342 3375 3250 3405 3326 3422 3435 3299 3319 3266 3312 3451 3322 3287 3227 3315 3314 3418 3343 3397 3244 3342 3251 3304 3276 3337 3190 3323 3208 3358 3370 3446 3249 3268 3236 3436 3327 3235 3341 3383 3239 3462 3207 3272 3385 3282 3228 3375 3366 3281 3211 3253 3343 3191 3238 3279 3358 3243 3252 3313 3466 3136 3397 3258 3330 3256 3248 3277 3357 3389 3365 3362 3279 3222 3355 3296 3280 3259 3324 3426 3358 3380 3337 3297 3306 3326 3422 3227 3358 3484 3346 3266 3196 3223 3341 3365 3386

Tree=0
num_leaves=31
num_cat=0
split_feature=0 5 6 1 3 3 3 3 2 1 0 3 2 1 0 1 5 2 1 1 4 1 3 3 4 1 1 3 3 0
split_gain=2492.13 1299.29 1338.37 399.183 307.99 176.518 329.001 434.098 131.324 88.3869 82.8245 82.6964 34.0275 31.1596 30.4714 46.5338 32.3563 24.2233 23.0701 17.8574 30.1866 22.6675 18.3286 17.746 12.7434 11.4523 10.8303 30.0686 10.5238 9.8165
threshold=1.0000000180025095e-35 1.5000000000000002 1.5000000000000002 23.500000000000004 9.5000000000000018 4.5000000000000009 6.5000000000000009 8.5000000000000018 6.1580371870387447 56.500000000000007 12.500000000000002 4.5000000000000009 6.6086749342317344 52.500000000000007 12.500000000000002 26.500000000000004 1.5000000000000002 7.4413202177204436 22.500000000000004 41.500000000000007 4.5000000000000009 26.500000000000004 9.5000000000000018 5.5000000000000009 3.5000000000000004 56.500000000000007 65.500000000000014 11.500000000000002 4.5000000000000009 4.5000000000000009
decision_type=2 2 2 2 2 2 2 2 2 2 2 2 2 2 2 2 2 2 2 2 2 2 2 2 2 2 2 2 2 2
left_child=1 2 11 12 5 9 13 -8 10 -4 19 -1 18 -7 15 -10 23 -18 28 21 -21 -5 -23 -17 -3 -22 27 -6 -2 -25
right_child=3 24 4 8 26 6 7 -9 14 -11 -12 -13 -14 -15 -16 16 17 -19 -20 20 25 22 -24 29 -26 -27 -28 -29 -30 -31
leaf_value=-2.3283234047082964 -2.3133679457366632 -2.3087754939036071 -2.2054672756431919 -2.318933331449232 -2.2603585603621212 -2.0942779119330788 -2.271592571469442 -2.077173062216136 -2.3081117047438533 -2.2802701705121664 -2.3316335876260186 -2.2854804983311068 -2.287293248557432 -2.1839301196182013 -2.3256019842844093 -2.3294474511239494 -2.3221744777889208 -2.3178997430672852 -2.3183780058707053 -2.3224664180520991 -2.3251975653845696 -2.3287936769022792 -2.3200117864701757 -2.3243982847768323 -2.3200004799569438 -2.3298728665747199 -2.3216502880704093 -2.3216502880704093 -2.2958013987419892 -2.3175605782800628
leaf_weight=125.71765167301055 158.07253001554636 454.83555674157105 194.35131917067338 709.19963331491454 70.351656930579338 142.82236481661675 136.38170970894862 32.852395486494061 678.06180212885374 75.313998477417044 6972.8567764434265 615.31786452158121 515.18901394621935 81.593893799872603 4231.1768992954167 1542.879334280733 6917.4627140777302 6232.0965080117458 253.82979703665478 8969.1047985524638 3554.3418592595262 7012.8023863679264 606.74970366054913 2117.8570755675901 672.48447520297486 2352.0572386775166 16.717893610417377 23.923711497918703 504.81824753043475 674.05482621991541
leaf_count=2609 1872 6607 3920 7648 1338 2680 2583 561 8060 1536 56844 12273 6499 1490 39951 18753 60194 60155 2747 65440 34880 65558 6481 25624 9902 21485 310 478 6190 7502
internal_value=-2.32165 -2.27431 -2.24418 -2.32397 -2.19842 -2.18541 -2.16182 -2.22395 -2.32469 -2.22395 -2.32684 -2.29301 -2.29801 -2.1205 -2.32178 -2.3209 -2.32141 -2.32016 -2.30448 -2.32539 -2.32432 -2.32726 -2.32807 -2.32514 -2.31524 -2.3271 -2.28158 -2.27544 -2.29955 -2.32267
internal_weight=0 2642.66 1515.34 54002.6 774.309 663.316 393.65 169.234 52570.7 269.665 30177.1 741.036 1431.91 224.416 22393.6 18162.4 17484.4 13149.6 916.721 23204.3 14875.5 8328.75 7619.55 4334.79 1127.32 5906.4 110.993 94.2754 662.891 2791.91
internal_count=542170 46287 29778 495883 14896 12770 7314 3144 478575 5456 258336 14882 17308 4170 220239 180288 172228 120349 10809 201492 121805 79687 72039 51879 16509 56365 2126 1816 8062 33126
is_linear=0
shrinkage=1


Tree=1
num_leaves=31
num_cat=0
split_feature=0 5 6 1 3 0 3 3 3 2 3 1 1 2 1 5 3 3 2 2 3 4 1 1 1 4 1 3 0 5
split_gain=2268.82 1086.77 1021.61 373.325 214.273 120.505 106.621 179.945 292.351 81.3973 74.5148 61.1383 39.2478 37.0804 31.4119 30.1257 27.0337 25.2112 22.0531 17.6953 16.7768 16.2913 35.8713 13.4191 12.5715 11.8406 11.7007 11.1617 11.1336 10.7986
threshold=1.0000000180025095e-35 1.5000000000000002 1.5000000000000002 23.500000000000004 9.5000000000000018 12.500000000000002 4.5000000000000009 6.5000000000000009 8.5000000000000018 6.4126386124386281 4.5000000000000009 56.500000000000007 28.500000000000004 6.4907223831728951 20.500000000000004 1.5000000000000002 7.5000000000000009 11.500000000000002 6.6086749342317344 7.5350293945362292 5.5000000000000009 4.5000000000000009 42.500000000000007 26.500000000000004 26.500000000000004 3.5000000000000004 67.500000000000014 5.5000000000000009 14.500000000000002 1.5000000000000002
decision_type=2 2 2 2 2 2 2 2 2 2 2 2 2 2 2 2 2 2 2 2 2 2 2 2 2 2 2 2 2 2
left_child=1 2 10 14 6 9 11 -8 16 21 -1 -4 -11 -7 28 20 -9 26 -16 -17 -14 22 24 -23 -5 -3 -6 -20 -2 -24
right_child=3 25 4 5 17 13 7 8 -10 12 -12 -13 15 -15 18 19 -18 -19 27 -21 -22 23 29 -25 -26 -27 -28 -29 -30 -31
leaf_value=-0.0065584405184911584 0.039327381802949486 0.01240019940592247 0.10122945595207281 0.0019962653145866485 0.056137235145656918 -0.0096446450580853736 0.16205593650874098 0.06201575445277268 0.19492696843444529 0.0094757982292081305 0.034028068566922615 0.038930344107936526 -0.0079635852103858949 -0.003404170401943526 0.010985165323794311 -0.0003854805828106821 0.0095142474249916634 0 0.015373025909959374 0.003537783099182941 -0.00096989212475195288 0.0046238563762585989 -0.0062414163038828265 -0.0054169495918031073 -0.0063684599247568682 0.0016066393833018945 0 0.035946959313695792 0.012664331944159233 0
leaf_weight=124.8815174701158 328.90136803116184 460.72933182038832 218.29567704990041 451.15708514151629 77.283977888349909 7428.4569664779701 272.92610703437822 93.862379084690474 41.950984194292687 1254.8072828258737 637.98117592191556 78.49587962316582 1369.1844448227203 3689.623390575056 655.42359976598527 5561.340347303485 49.520045209210366 28.911169055732898 192.90979737706948 5762.0262745902874 2492.8476740938495 317.33372024114942 744.66984692483675 9870.5171283097588 5016.4230195446289 673.59486519929487 9.2449755579582398 205.86991318321088 82.178581910498906 8454.2071214309544
leaf_count=2609 4156 6607 3920 4415 1381 61376 4170 1657 561 15009 12273 1536 16695 35419 7339 48822 926 580 2181 54658 29567 3865 7707 99210 42535 9902 165 2506 1126 59297
internal_value=0 0.0440878 0.0701166 -0.00227072 0.107011 -0.00297133 0.116868 0.134217 0.0874739 -0.00172036 0.0271252 0.0867754 0.000999386 -0.00759536 0.0225415 0.000281463 0.0465831 0.0377188 0.0173619 0.00159429 -0.00351164 -0.00352718 -0.00243187 -0.00508141 -0.00563993 0.00621848 0.0503036 0.0269541 0.0347974 -0.000500324
internal_weight=0 2767.68 1633.35 53877.9 870.491 52412.6 755.051 458.26 185.333 41294.5 762.863 296.792 16440.2 11118.1 1465.28 15185.4 143.382 115.44 1054.2 11323.4 3862.03 24854.3 14666.5 10187.9 5467.58 1134.32 86.529 398.78 411.08 9198.88
internal_count=542170 46287 29778 495883 14896 478575 12770 7314 3144 381780 14882 5456 164751 96795 17308 149742 2583 2126 12026 103480 46262 217029 113954 103075 46950 16509 1546 4687 5282 67004
is_linear=0
shrinkage=0.05


Tree=2
num_leaves=31
num_cat=0
split_feature=0 6 5 1 3 2 0 3 3 1 5 3 3 0 1 1 5 3 2 2 1 1 4 1 3 3 1 1 3 0
split_gain=2071 657.267 1016.32 349.834 154.086 121.183 77.7931 65.9391 100.405 43.143 42.8695 67.3819 50.1502 27.8485 45.476 27.502 25.3203 22.3302 21.2047 19.8161 19.1649 16.5696 27.7449 20.9123 17.7392 16.3784 11.1592 10.2038 9.5074 9.2353
threshold=1.0000000180025095e-35 1.5000000000000002 1.5000000000000002 23.500000000000004 9.5000000000000018 6.1580371870387447 12.500000000000002 4.5000000000000009 6.5000000000000009 56.500000000000007 1.5000000000000002 4.5000000000000009 7.5000000000000009 14.500000000000002 26.500000000000004 20.500000000000004 1.5000000000000002 11.500000000000002 7.4413202177204436 6.6086749342317344 30.500000000000004 41.500000000000007 4.5000000000000009 26.500000000000004 9.5000000000000018 5.5000000000000009 56.500000000000007 67.500000000000014 5.5000000000000009 14.500000000000002
decision_type=2 2 2 2 2 2 2 2 2 2 2 2 2 2 2 2 2 2 2 2 2 2 2 2 2 2 2 2 2 2
left_child=1 10 4 15 7 6 21 9 -9 -3 11 -1 20 14 -7 29 25 27 -18 -17 -13 23 -23 -5 -25 -16 -24 -6 -21 -2
right_child=3 2 -4 5 17 13 -8 8 -10 -11 -12 12 -14 -15 16 19 18 -19 -20 28 -22 22 26 24 -26 -27 -28 -29 -30 -31
leaf_value=-0.0064450720005909852 0.036906317618497074 0.089458708443648852 0.0023045102985874088 0.0025600151067575114 0.052088667612680467 0.012470477761719726 -0.0096893476207018658 0.13473517334835944 0.079114885670449372 0.036700750980124944 0.0080633463433396283 0.006507775500592089 0.017023670448512791 -0.0051921187443675796 -0.0075277378817689275 0.010598270142773255 -0.00078077731179225084 0 0.0029848296671339328 0.01478233623577244 0.051095376206698573 -0.00077979665661868838 -0.0033560505760170684 -0.006910064353955879 0.0017505684459178325 -0.0010006550842374482 -0.0079952546072098903 0 0.033873896196521751 0.012231499806262758
leaf_weight=124.06516932538943 342.09391115163453 241.55082679050975 442.53953310998622 713.30633534665685 81.746574048069306 754.19509952986846 6837.3282688969048 320.94090935727581 200.84081902966136 81.61201449658256 698.61646021320485 40.391205719672143 336.60766871337546 2409.5145167792216 1521.626225147862 662.66321587190032 7800.4435300490004 28.911169055732898 7064.1479121062439 195.89831552223768 283.06515782483621 8955.5428926026216 3522.622355653788 6921.3916072443244 604.15988357458264 2833.7998999565025 2320.1940735555254 9.2449755579582398 213.40492814948084 83.225936728878878
leaf_count=2609 4156 3920 6175 7648 1381 8765 56844 4170 3144 1536 10334 779 6322 23191 18767 7339 68134 580 67863 2181 5172 65440 34880 65558 6481 33519 21485 165 2506 1126
internal_value=0 0.0411753 0.065623 -0.00221939 0.0942174 -0.00290679 -0.00499069 0.101925 0.115128 0.0778746 0.0176225 0.0257295 0.0320811 -0.00011582 0.00048825 0.021534 2.98409e-06 0.0355279 0.000995919 0.0166677 0.0464055 -0.00358478 -0.00255623 -0.00540397 -0.00618718 -0.00333584 -0.00524036 0.0468993 0.0256467 0.0328357
internal_weight=0 2890.13 1407.39 53755.6 964.847 52258.3 29874.5 844.945 521.782 323.163 1482.75 784.129 660.064 22383.7 19974.2 1497.29 19220 119.903 14864.6 1071.97 323.456 23037.2 14798.4 8238.86 7525.55 4355.43 5842.82 90.9915 409.303 425.32
internal_count=542170 46287 21071 495883 14896 478575 258336 12770 7314 5456 25216 14882 12273 220239 197048 17308 188283 2126 135997 12026 5951 201492 121805 79687 72039 52286 56365 1546 4687 5282
is_linear=0
shrinkage=0.05


Tree=3
num_leaves=31
num_cat=0
split_feature=0 5 6 1 3 2 0 3 3 3 3 3 3 3 3 1 2 0 1 3 4 3 1 4 5 4 1 2 2 3
split_gain=1895.36 781.221 629.782 329.873 113.241 110.715 73.2262 61.2861 56.5653 136.886 103.464 43.083 69.6297 152.766 54.3656 38.2958 27.5936 26.2891 26.7785 21.5193 19.9099 19.8751 18.8659 26.8466 18.3038 16.4033 16.0012 15.2408 14.8053 12.6156
threshold=1.0000000180025095e-35 1.5000000000000002 1.5000000000000002 24.500000000000004 9.5000000000000018 6.1580371870387447 12.500000000000002 4.5000000000000009 8.5000000000000018 6.5000000000000009 4.5000000000000009 7.5000000000000009 8.5000000000000018 10.500000000000002 9.5000000000000018 20.500000000000004 6.6086749342317344 15.500000000000002 28.500000000000004 7.5000000000000009 5.5000000000000009 11.500000000000002 40.500000000000007 4.5000000000000009 1.5000000000000002 2.5000000000000004 26.500000000000004 4.7405652883788738 7.505217171566799 8.5000000000000018
decision_type=2 2 2 2 2 2 2 2 2 2 2 2 2 2 2 2 2 2 2 2 2 2 2 2 2 2 2 2 2 2
left_child=1 2 7 15 8 6 22 -1 9 10 -4 25 -13 14 -14 -2 -17 18 -7 -11 24 -6 27 -24 29 -9 -27 -5 -26 -20
right_child=3 -3 4 5 21 17 -8 11 -10 19 -12 12 13 -15 -16 16 -18 -19 20 -21 -22 -23 23 -25 28 26 -28 -29 -30 -31
leaf_value=-0.0063330195380967768 0.031043214203532638 0.0058554532473298251 0.070479714788749231 -0.0077184234543359771 0.043851392468428896 0.00699070396697865 -0.0095553761055650142 0.018108806018388036 0.14855467955619522 0.051326544302647284 0.11502420923497624 -0.0049415688863170583 0.0069306782607119677 0.009164978959766255 0.15368094005197341 0.0079350999942528026 0.022122628626922505 -0.0063815193514736267 -0.004600130200958767 0.0069559944617785894 -0.0026345651332331482 0 -0.00083654657687875155 -0.0051515275903740616 -5.8950156486895046e-05 0 0.052851564623518116 -0.0030204696434286745 0.0036957927701682367 0.0031223676006609975
leaf_weight=123.26813052059151 439.20537568553118 1147.8329640331795 348.81855884374818 4146.8809206716833 95.362468708539382 1354.0987799337599 6720.9851525088307 86.178335399599746 55.176864534907509 108.08957727375673 367.23140959360171 173.57775727636181 12.453419917495919 131.32986067095771 25.02598032890819 957.03054397308733 610.17542903090362 1622.6865738583147 2157.3295906144194 54.109332688385621 6070.3572706514387 28.911169055732898 9272.249721272965 6041.7411790066981 5107.5455096150399 9.6331372371641901 242.7478046315955 3294.3840412013233 5179.849030846497 662.06080866325647
leaf_count=2609 5282 16509 5456 38653 1546 15950 56267 1488 561 1657 4170 3306 215 2389 412 10512 6894 15339 25895 926 62082 580 68040 58782 43414 189 4274 33834 47268 7671
internal_value=0 0.0385587 0.0585082 -0.00216925 0.0838402 -0.00294654 -0.00495383 0.0244785 0.0900057 0.0848748 0.0945566 0.0303549 0.0163324 0.0386213 0.118652 0.0176698 0.0136649 -0.000266007 0.000209749 0.0386648 -0.000261176 0.0335258 -0.00358323 -0.00255365 0.000823678 0.0432966 0.0503569 -0.00567054 0.0018135 -0.00271248
internal_weight=0 3009.75 1861.91 53636.6 1057.7 51630.2 29476.2 804.214 933.426 878.249 716.05 680.946 342.387 168.809 37.4794 2006.41 1567.21 22153.9 20531.2 162.199 19177.1 124.274 22755.3 15314 13106.8 338.559 252.381 7441.26 10287.4 2819.39
internal_count=542170 46287 29778 495883 14896 473195 255576 14882 12770 12209 9626 12273 6322 3016 627 22688 17406 217619 202280 2583 186330 2126 199309 126822 124248 5951 4463 72487 90682 33566
is_linear=0
shrinkage=0.05


Tree=4
num_leaves=31
num_cat=0
split_feature=0 5 6 1 2 3 0 3 1 3 1 0 5 2 2 3 1 1 4 2 4 1 3 3 3 3 1 4 1 3
split_gain=1741.31 672.722 506.07 310.099 106.19 85.4188 66.5188 56.1249 50.5087 36.6678 34.5653 29.2564 29.1615 25.4254 22.2003 18.8815 16.8497 15.6688 24.9378 15.1967 13.1706 15.0504 12.8291 12.7086 103.214 32.6282 12.0181 11.9214 11.4447 10.9151
threshold=1.0000000180025095e-35 1.5000000000000002 1.5000000000000002 24.500000000000004 5.9776183370995293 9.5000000000000018 12.500000000000002 4.5000000000000009 54.500000000000007 7.5000000000000009 21.500000000000004 12.500000000000002 1.5000000000000002 6.6086749342317344 7.4413202177204436 5.5000000000000009 78.500000000000014 40.500000000000007 4.5000000000000009 4.7405652883788738 2.5000000000000004 43.500000000000007 5.5000000000000009 8.5000000000000018 6.5000000000000009 4.5000000000000009 27.500000000000004 4.5000000000000009 58.500000000000007 4.5000000000000009
decision_type=2 2 2 2 2 2 2 2 2 2 2 2 2 2 2 2 2 2 2 2 2 2 2 2 2 2 2 2 2 2
left_child=1 2 7 10 6 8 17 -1 23 20 -2 12 15 -12 26 -6 29 19 -19 -5 -9 -22 -15 24 25 -4 -14 -13 -20 -10
right_child=3 -3 5 4 11 -7 -8 9 16 -11 13 27 14 22 -16 -17 -18 18 28 -21 21 -23 -24 -25 -26 -27 -28 -29 -30 -31
leaf_value=-0.0062222905302296242 0.02563847452667524 0.0056774615007205197 0.073242471945085152 -0.0075860854745307543 -0.0073540998810887595 0.03169222771414397 -0.009529215026072145 0.017398918442684465 0.037219823917632476 0.015798514025971534 0.0054012248514771896 -0.0016543174237598742 0.0085595592477358835 0.010088052245690914 0.0036822666347092409 -0.00059568269184617599 0 -0.00095429061704440602 -0.0036051552938410566 -0.0026992041298160591 0.026459185868478292 0.058709761398459542 0.028221192437474896 0.13704966800567661 0.034250738312675798 0.10903916297798787 -0.00064444560713526611 -0.0069731364124853163 -0.0085919294151910863 0.070188818336368086
leaf_weight=122.48993735091062 756.24558134493418 1154.5737623439054 267.10525469179265 4114.9967143779504 1635.9018679371802 128.54845855524763 6289.2204932001187 87.75313821900636 103.14729244168848 346.98445175867528 775.23355947918026 2513.2508375969483 362.87001482589403 241.39565675938502 6522.9324508517748 2988.9778074013884 11.06394484406337 8682.2779458113946 3858.9175620377646 2869.2481844297145 113.78985165280756 151.76577577542048 268.65817945403978 41.091959257959388 111.44662443862762 290.06117725145305 7825.7168614688562 1991.3218088623835 1824.255440601497 194.65425020834664
leaf_count=2609 8684 16509 3681 38653 20430 2126 53088 1488 1691 6322 8364 22621 3870 2615 62514 35670 158 63566 38638 29779 1955 2508 3025 363 1747 2882 67481 20006 16879 2248
internal_value=0 0.0362367 0.0539571 -0.0021205 -0.00288267 0.0754243 -0.00499201 0.0233757 0.0804766 0.0288464 0.0169413 -0.000428118 0.000408306 0.0115503 0.00150614 -0.00303747 0.0584215 -0.0036432 -0.00266959 -0.00561212 0.0405117 0.0467293 0.0202962 0.0890849 0.0843536 0.0934332 -0.000204717 -0.0040576 -0.00525023 0.0606195
internal_weight=0 3124.48 1969.9 53521.4 51479.9 1147.12 27638.9 822.783 1018.57 700.293 2041.53 23841 19336.4 1285.29 14711.5 4624.88 308.865 21349.7 14365.5 6984.24 353.309 265.556 510.054 709.705 668.613 557.166 8188.59 4504.57 5683.17 297.802
internal_count=542170 46287 29778 495883 473195 14896 240603 14882 12770 12273 22688 232592 189965 14004 133865 56100 4097 187515 119083 68432 5951 4463 5640 8673 8310 6563 71351 42627 55517 3939
is_linear=0
shrinkage=0.05


Tree=5
num_leaves=31
num_cat=0
split_feature=0 6 2 1 1 3 5 5 0 3 3 3 3 5 1 1 3 4 1 1 4 2 0 1 5 2 0 1 3 1
split_gain=1604.38 394.193 122.518 174.295 138.607 81.5869 408.397 125.558 72.6229 48.3607 38.5494 40.579 71.9441 31.3299 24.8541 23.3185 17.8879 17.7394 17.2115 23.5246 30.0141 16.6414 12.8305 11.8938 11.7423 12.5982 13.6412 11.0928 10.8335 8.87053
threshold=1.0000000180025095e-35 1.5000000000000002 6.4126386124386281 24.500000000000004 22.500000000000004 6.5000000000000009 1.5000000000000002 1.5000000000000002 12.500000000000002 4.5000000000000009 11.500000000000002 8.5000000000000018 9.5000000000000018 1.5000000000000002 28.500000000000004 56.500000000000007 7.5000000000000009 5.5000000000000009 26.500000000000004 40.500000000000007 4.5000000000000009 4.7405652883788738 12.500000000000002 53.500000000000007 1.5000000000000002 7.4024468732654141 11.500000000000002 59.500000000000007 9.5000000000000018 20.500000000000004
decision_type=2 2 2 2 2 2 2 2 2 2 2 2 2 2 2 2 2 2 2 2 2 2 2 2 2 2 2 2 2 2
left_child=1 13 4 29 -2 6 9 10 18 15 11 16 -13 -1 -5 -3 -7 24 -6 21 -21 -20 23 -19 -16 -26 -27 -22 -23 -4
right_child=2 5 3 14 8 7 -8 -9 -10 -11 -12 12 -14 -15 17 -17 -18 22 19 20 27 28 -24 -25 25 26 -28 -29 -30 -31
leaf_value=0.022323198752575563 0.017980927563146929 0.066440200607163602 0.035001936504172937 0.0065268070645395767 0.0032386722066311173 0.044725605796410488 0.0017504076307086739 0.0011409273158745172 -0.0089685474375611734 0.088737832702670341 0 0.1124172034350526 0.039193793266744645 0.0074316981197697224 -0.0024494758691844488 0.029118230085980214 0.0055018132304018516 7.1681245176283972e-05 -0.0081679049436662026 -0.00061887975270138345 -0.0035742647001605187 -0.0041448596582505616 -0.007805469275568429 -0.005198015039157013 -0.00072357256846238048 0.0043014119334047361 -0.0009162772659467019 -0.0082244383967313029 0.0054161513193581451 0.019206866696257652
leaf_weight=841.31674762046896 691.1536272430676 304.36239615664817 167.72160857880954 1332.8633846559096 961.97884072951274 119.05932936217869 246.75726724672131 201.94843604939524 7066.5611564930878 453.96719117846806 29.842102092748974 71.679902988369577 102.84558783232933 712.44174929684959 2644.6352363990736 94.137039842549711 57.06310631823726 3135.6021489512059 3797.6127197341993 9854.5929208408925 4586.6551686864696 3240.8469237344689 1069.2997516167816 1563.6540863920236 4397.8486430837656 4233.2693873724784 1692.9867983498843 1972.0646502654999 302.2417614547885 697.93613680882845
leaf_count=14882 7596 3920 1997 15730 10231 1657 3425 2750 60694 4170 580 561 1546 10334 31662 1536 926 34665 35747 72552 46098 32929 10608 14182 38276 38032 15905 18097 3326 7556
internal_value=0 0.0341475 -0.00207293 0.000901641 -0.00399655 0.0509359 0.0593412 0.034181 -0.0044849 0.0756184 0.0508409 0.0554009 0.0737591 0.0156916 -3.97938e-05 0.0588171 0.0338502 -0.000519998 -0.00319256 -0.00346237 -0.00238752 -0.00583355 -0.00283005 -0.00164478 0.000493151 0.00126753 0.00277787 -0.00501073 -0.00326321 0.0227706
internal_weight=0 3235.42 53409.5 20935.8 32473.7 1681.66 1099.22 582.438 31782.6 852.467 380.49 350.648 174.525 1553.76 20070.2 398.499 176.122 18737.3 24716 23754 16413.3 7340.7 5768.56 4699.26 12968.7 10324.1 5926.26 6558.72 3543.09 865.658
internal_count=542170 46287 495883 208613 287270 21071 13051 8020 279674 9626 5270 4690 2107 25216 199060 5456 2583 183330 218980 208749 136747 72002 59455 48847 123875 92213 53937 64195 36255 9553
is_linear=0
shrinkage=0.05


Tree=6
num_leaves=31
num_cat=0
split_feature=1 0 5 3 0 3 6 3 3 2 1 0 1 2 2 1 3 2 5 3 1 3 4 1 2 4 3 3 4 1
split_gain=259.715 1437.58 489.752 99.0326 91.8686 69.8358 293.5 62.1297 74.9148 57.7175 52.1798 40.2098 34.34 28.5323 27.356 25.7219 40.6021 22.1277 18.9131 18.2849 14.4091 23.4084 13.3843 15.2913 11.1233 10.9585 10.5116 9.6589 9.64197 9.09883
threshold=26.500000000000004 1.0000000180025095e-35 1.5000000000000002 10.500000000000002 12.500000000000002 8.5000000000000018 1.5000000000000002 7.5000000000000009 4.5000000000000009 7.5350293945362292 22.500000000000004 1.0000000180025095e-35 63.500000000000007 6.176905692078182 6.4907223831728951 41.500000000000007 7.5000000000000009 4.7405652883788738 1.5000000000000002 5.5000000000000009 78.500000000000014 7.5000000000000009 4.5000000000000009 42.500000000000007 3.0201273556387074 2.5000000000000004 5.5000000000000009 4.5000000000000009 3.5000000000000004 19.500000000000004
decision_type=2 2 2 2 2 2 2 2 2 2 2 2 2 2 2 2 2 2 2 2 2 2 2 2 2 2 2 2 2 2
left_child=10 2 3 5 9 6 7 8 -2 17 24 19 -7 -13 -6 16 -8 -3 26 -12 21 27 23 -19 -1 -10 -11 -17 -4 -26
right_child=1 4 28 -5 14 12 15 -9 25 18 11 13 -14 -15 -16 20 -18 22 -20 -21 -22 -23 -24 -25 29 -27 -28 -29 -30 -31
leaf_value=0 -0.0066751333412032382 -0.0045238844091389846 0.01039256401032408 0.0079967734802112184 -0.0089733344480253576 0.086690965716884283 0.080781817575035067 -0.0058644139970369961 0.016791267142338206 -0.0062951434961649377 0.048149273448047973 0.00097070499669624525 0.018267454630398194 0.012573883505896472 -0.0034315167536863918 0.043121438786863732 0 -0.0031253109576874771 0.0032582509308252891 0.0053487512313453549 0 0.0070143776213425248 -0.0031533848675939623 0.00099125426531299359 0.034343876424894525 0.044242261500062573 0.00043178739957959087 0.064581863754627641 0.00061576575307068524 0.019831562241831656
leaf_weight=57.27824017603416 109.20728813612368 12159.3306089947 456.5425462971325 171.37982888845727 6919.068049107038 185.69906623510178 315.99310430203332 177.11623395758215 87.221686701755971 871.21546389220748 85.729044419946149 1128.8254221942043 34.004770614206791 1066.2956304991967 3507.996955763374 245.18845880171284 18.622810076922178 3476.5611039715586 6145.4803101567086 52.600685978482943 11.167949912312904 36.017905630171299 8983.2183300182223 6305.4915103980456 197.64344540546881 273.93951465265127 1568.9794867943856 386.72777543449774 659.9332139872713 950.03927442553686
leaf_count=610 2268 103750 6277 3029 59313 2185 3297 3248 1406 11025 1163 12108 394 11887 33854 3275 296 31847 58104 838 151 587 93446 48836 2377 4274 19064 3606 9395 10260
internal_value=0 -0.000874335 0.0317371 0.0462047 -0.00295214 0.0495345 0.0453253 0.018291 0.0277545 -0.00184288 0.0131018 0.00855003 0.0779335 0.00672145 -0.00713186 0.0621358 0.0766406 -0.00285217 0.0017685 0.0343577 0.0539384 0.0548706 -0.00175692 -0.000452625 0.0216442 0.0386317 -0.00190013 0.0571713 0.00483425 0.0227106
internal_weight=0 53106.1 3168.76 2052.29 49937.3 1880.91 1661.2 647.485 470.368 39510.3 3538.41 2333.45 219.704 2195.12 10427.1 1013.72 334.616 30924.6 8585.68 138.33 679.102 667.934 18765.3 9782.05 1204.96 361.161 2440.19 631.916 1116.48 1147.68
internal_count=542170 502927 43688 28016 459239 24987 22408 11196 7948 366072 39243 25996 2579 23995 93167 11212 3593 277879 88193 2001 7619 7468 174129 80683 13247 5680 30089 6881 15672 12637
is_linear=0
shrinkage=0.05


Tree=7
num_leaves=31
num_cat=0
split_feature=0 5 6 1 2 0 3 3 3 3 3 3 0 1 1 5 2 1 2 3 1 5 4 3 1 1 2 3 2 3
split_gain=1369.46 447.101 287.441 259.666 94.5429 60.4991 48.5755 46.8959 26.8516 57.9823 110.45 37.9161 26.177 26.0475 25.4016 22.7711 20.2136 19.3126 18.423 17.5661 14.3749 15.6043 14.436 13.0114 12.7914 11.6516 11.6183 11.2186 10.4998 10.2663
threshold=1.0000000180025095e-35 1.5000000000000002 1.5000000000000002 24.500000000000004 5.9776183370995293 12.500000000000002 9.5000000000000018 4.5000000000000009 7.5000000000000009 8.5000000000000018 10.500000000000002 9.5000000000000018 14.500000000000002 20.500000000000004 54.500000000000007 1.5000000000000002 6.6086749342317344 26.500000000000004 7.4413202177204436 5.5000000000000009 40.500000000000007 1.5000000000000002 4.5000000000000009 11.500000000000002 30.500000000000004 78.500000000000014 8.6017170655673123 9.5000000000000018 4.7140145363037149 5.5000000000000009
decision_type=2 2 2 2 2 2 2 2 2 2 2 2 2 2 2 2 2 2 2 2 2 2 2 2 2 2 2 2 2 2
left_child=1 2 7 13 5 20 14 -1 24 -10 11 -11 15 -2 -4 19 -15 -17 -19 -6 27 -22 -23 26 -9 -16 -8 28 -5 -18
right_child=3 -3 6 4 12 -7 23 8 9 10 -12 -13 -14 16 25 17 29 18 -20 -21 21 22 -24 -25 -26 -27 -28 -29 -30 -31
leaf_value=-0.00649478671029044 0.025529856539162905 0.0051853914599307716 0.066536670517297253 -0.0076850989628955389 -0.0071095343046650846 -0.0091062566703204919 0.041967436283040283 0.0035625995970609589 -0.0054591403721225883 0.0045406792662182399 0.007431030347311034 0.11940377717162741 -0.0051634444529250131 0.0068006252888406313 0.047214558867421548 0.010709828371883405 0.010456667221500468 -0.00075681473112213047 0.0026344118678897151 -0.00057865913884245243 -0.0060964709862320219 -0.00046512532412204956 -0.004253492247766829 0 0.037920936467567189 0 0 0.0013427298130075653 -0.0033687838026458198 0.025004683598637445
leaf_weight=124.42191215051571 488.11104436777532 1173.6251773267868 886.70399189996533 3694.6574613509001 1616.0415586109739 6119.8344161208952 84.303365719271824 45.359109135344625 178.41617242188659 14.07714297599159 138.79178423958365 32.755820221325848 2555.9968000113731 991.62552316830261 354.60812034807168 497.71454213873949 310.24512474815128 8947.4435400853981 7154.3772465341026 3030.1722087670933 2508.0624714242877 7973.6242598345852 3768.5713395116618 30.080577953136526 344.06947383907391 11.737505780241916 30.504782197764143 530.10967595793772 2657.541002103244 349.19093391019851
leaf_count=2609 5282 16509 8673 34997 20444 53088 1149 779 3306 215 2389 412 24813 10512 3939 5330 3209 78044 67863 36098 29484 56519 33080 580 5172 158 397 5847 27588 3685
internal_value=0 0.030496 0.043401 -0.00198045 -0.00269969 -0.00471074 0.0575327 0.0203754 0.0250956 0.0139334 0.0330966 0.0939517 -0.000387917 0.0150414 0.0608883 0.000178818 0.0117187 0.00105382 0.000738088 -0.002901 -0.00342559 -0.00249056 -0.00169993 0.0256316 0.0345658 0.0456213 0.0329319 -0.0053278 -0.00591685 0.0186547
internal_weight=0 3449.45 2275.83 53193.3 51054.1 27252.4 1397.94 877.891 753.47 364.041 185.625 46.833 23801.7 2139.17 1253.05 21245.7 1651.06 16599.5 16101.8 4646.21 21132.6 14250.3 11742.2 144.889 389.429 366.346 114.808 6882.31 6352.2 659.436
internal_count=542170 46287 29778 495883 473195 240603 14896 14882 12273 6322 3016 627 232592 22688 12770 207779 17406 151237 145907 56542 187515 119083 89599 2126 5951 4097 1546 68432 62585 6894
is_linear=0
shrinkage=0.05


Tree=8
num_leaves=31
num_cat=0
split_feature=0 5 6 2 1 1 0 3 3 1 3 3 3 3 0 5 1 1 5 4 2 4 1 2 3 2 1 3 4 1
split_gain=1266.87 393.274 240.376 108.118 143.827 115.635 65.7349 43.3029 39.7812 23.6413 23.2226 53.8088 94.7952 28.6503 19.5158 23.5789 15.4893 21.791 16.9562 19.2611 15.4938 14.0961 24.0947 22.0164 13.7541 12.0867 11.2417 10.1864 10.1472 9.99684
threshold=1.0000000180025095e-35 1.5000000000000002 1.5000000000000002 6.4126386124386281 26.500000000000004 22.500000000000004 12.500000000000002 4.5000000000000009 11.500000000000002 23.500000000000004 7.5000000000000009 8.5000000000000018 10.500000000000002 9.5000000000000018 12.500000000000002 1.5000000000000002 26.500000000000004 40.500000000000007 1.5000000000000002 4.5000000000000009 4.7405652883788738 1.5000000000000002 54.500000000000007 7.704585935880802 5.5000000000000009 7.4413202177204436 26.500000000000004 9.5000000000000018 3.5000000000000004 78.500000000000014
decision_type=2 2 2 2 2 2 2 2 2 2 2 2 2 2 2 2 2 2 2 2 2 2 2 2 2 2 2 2 2 2
left_child=1 2 7 5 9 -2 16 -1 21 -5 26 -12 13 -13 15 24 -7 20 -19 -20 -18 -4 23 -23 -6 -17 -9 -22 -3 -24
right_child=3 28 8 4 14 6 -8 10 -10 -11 11 12 -14 -15 -16 25 17 18 19 -21 27 22 29 -25 -26 -27 -28 -29 -30 -31
leaf_value=-0.0063821543471477742 0.015767079749812712 0.010563066055875543 0.0094458548936689844 0.022720164918688862 -0.0069252279970291129 0.0030809592059961952 -0.0085537891420773664 0 0 0.0093849940210465662 -0.005357406919023127 0.0044537344393033263 0.0072043500844808503 0.10591178644586841 -0.0036038382903941131 -0.00010826104131100216 -0.0078380748494271905 -0.0057015978324220055 -0.00010272615155171514 -0.004169751834819122 -0.0039355915069713273 0.067762321683045232 0.042714526580013741 0.04695927882982906 -0.00062201066252841059 0.0030489672205506876 0.034259734915073198 0.0053258598457433387 0.00081235672234286366 0
leaf_weight=123.61643578013172 729.25342964340234 485.03402379335603 31.485114351089578 688.6109440724249 1374.1000874486053 967.45711042644689 6886.2885819291696 14.450039073242804 30.080577953136526 818.1362077066442 177.44482874439564 14.141208109329453 139.82699082867475 36.910071392601822 3632.1780121496995 5536.7319148714305 3723.7485765163437 2904.3037794623524 9019.1402010569 4367.7524185489165 3208.3118652564008 603.24652054824401 402.16242674790556 399.69528758822707 2540.6711571429041 6389.1208390596439 388.43840749532683 303.1692001572228 694.69266452500597 13.031281769101041
leaf_count=2609 7596 6607 290 7137 17522 10231 60694 271 580 9045 3306 215 2389 412 35108 49186 35747 34272 64104 38371 32929 5595 4385 3871 30460 60155 5680 3326 9902 175
internal_value=0 0.0288682 0.0405739 -0.00193554 0.000848024 -0.00376026 -0.00422409 0.0195269 0.0530046 0.0156938 0.0239581 0.0134917 0.0315626 0.0853941 -0.000296034 0.000451156 -0.00299642 -0.00325574 -0.00221938 -0.0014462 -0.00555693 0.0541825 0.0549805 0.0600799 -0.00289447 0.00156728 0.0326178 -0.00306951 0.00503114 0.0413419
internal_weight=0 3554.26 2374.53 53089 20979.5 32109.4 31380.2 894.828 1479.7 1506.75 771.212 368.323 190.878 51.0513 19472.8 15840.6 24493.9 23526.4 16291.2 13386.9 7235.23 1449.62 1418.14 1002.94 3914.77 11925.9 402.888 3511.48 1179.73 415.194
internal_count=542170 46287 29778 495883 208613 287270 279674 14882 14896 16182 12273 6322 3016 627 192431 157323 218980 208749 136747 102475 72002 14316 14026 9466 47982 109341 5951 36255 16509 4560
is_linear=0
shrinkage=0.05


Tree=9
num_leaves=31
num_cat=0
split_feature=0 5 1 0 3 6 2 2 1 2 1 3 5 4 3 3 3 3 1 3 1 2 4 1 1 1 3 1 2 1
split_gain=1173.88 347.23 231.183 87.4358 63.9686 168.75 55.217 27.6998 22.1246 21.1194 19.0358 17.3741 16.2822 15.6696 13.8656 13.3118 19.5074 50.0498 18.7103 13.5502 11.948 11.5578 10.3206 17.1764 10.591 10.1949 10.1222 10.042 10.009 9.77528
threshold=1.0000000180025095e-35 1.5000000000000002 24.500000000000004 12.500000000000002 10.500000000000002 1.5000000000000002 7.5350293945362292 6.4907223831728951 20.500000000000004 4.7405652883788738 40.500000000000007 5.5000000000000009 1.5000000000000002 4.5000000000000009 4.5000000000000009 9.5000000000000018 8.5000000000000018 7.5000000000000009 41.500000000000007 6.5000000000000009 30.500000000000004 6.4496799081455176 4.5000000000000009 42.500000000000007 53.500000000000007 62.500000000000007 5.5000000000000009 56.500000000000007 6.1601513550935056 26.500000000000004
decision_type=2 2 2 2 2 2 2 2 2 2 2 2 2 2 2 2 2 2 2 2 2 2 2 2 2 2 2 2 2 2
left_child=1 4 8 6 5 -1 9 -5 -2 10 29 -10 26 -12 -11 16 17 18 19 -7 -16 -13 23 -22 -24 -17 -8 -15 -6 -4
right_child=2 -3 3 7 28 15 12 -9 11 14 13 21 -14 27 20 25 -18 -19 -20 -21 22 -23 24 -25 -26 -27 -28 -29 -30 -31
leaf_value=0.020502758844741065 0.023401019480879946 0.00488808146150356 0.0012849245481619347 -0.0085399784278554387 -0.0024102410750008688 0.064865459674341222 -0.005736618991566295 -0.0029990384128404258 0.0050821496815194557 -0.0045845935635061598 -0.0010980210529457693 0.0097393318721834699 0.0032826261881593009 -0.0031991361101115683 0.0033183229939704011 0.032767434785789466 0.079454352516661664 0.0023955944632679783 0.044136769961847074 0.026031861486851122 -0.0035568894048651567 0.022615519520570195 -0.0012068343752283674 0.0015085648092765692 -0.0054095151472063497 0 0.00083192915749846687 -0.0095437711431611422 0.019109454535449939 -0.0077046445365895142
leaf_weight=770.99170078081079 509.98682481545256 1185.441859507584 286.31796294811647 6865.2492950774031 90.888253403012641 429.25318679690827 883.7446759736049 3570.6222085203626 801.49324799334863 3000.7727228273288 5433.7527777067153 497.54020204610424 6412.8463783669868 1780.141500872036 1518.4956655126298 98.793624556681607 96.707758400938474 64.429430323420092 756.39036256191321 57.652302168949973 2416.6046859172639 391.5495007376303 4419.7969261085382 5389.5740556954988 2409.5979682651232 18.439713613130152 1598.9541132439626 1105.8312105669756 87.34498013718985 3694.6756417216384
leaf_count=12493 5282 16509 2906 60738 1517 3561 11412 34977 8013 28168 39357 5431 60362 17899 17239 1187 561 926 7025 697 21894 3962 48145 41812 22314 247 19478 10747 1564 35747
internal_value=0 0.0273721 -0.00189173 -0.00258329 0.038031 0.040293 -0.00152118 -0.00666682 0.0139328 -0.00250745 -0.00413263 0.0108681 0.00194308 -0.00272827 -0.00145216 0.0500397 0.0516979 0.0490518 0.0512809 0.0611365 -0.000856045 0.0157747 -0.00130429 -3.58904e-05 -0.00272322 0.0266579 -0.00143614 -0.0057178 0.00740469 -0.00700676
internal_weight=0 3656.33 52987.5 50787 2470.89 2292.66 40351.1 10435.9 2200.57 31455.6 12300.7 1690.58 8895.55 8319.73 19154.8 1521.67 1404.43 1307.73 1243.3 486.905 16154.1 889.09 14635.6 7806.18 6829.39 117.233 2482.7 2885.97 178.233 3980.99
internal_count=542170 46287 495883 473195 29778 26697 377480 95715 22688 286228 106656 17406 91252 68003 179572 14204 12770 12209 11283 4258 151404 9393 134165 63706 70459 1434 30890 28646 3081 38653
is_linear=0
shrinkage=0.05


Tree=10
num_leaves=31
num_cat=0
split_feature=0 5 1 6 0 1 3 2 4 2 1 1 3 3 3 3 3 2 2 5 1 2 3 2 2 4 1 3 4 3
split_gain=1089.59 308.254 218.626 173.742 79.1262 40.4641 39.3721 24.3798 22.6486 37.1068 28.6341 20.0423 25.3809 19.1837 50.1134 79.2845 21.6933 14.3706 14.3399 14.0939 13.0794 13.8777 12.7177 14.6432 13.7755 11.8646 10.1764 10.0645 9.45219 9.22711
threshold=1.0000000180025095e-35 1.5000000000000002 26.500000000000004 1.5000000000000002 12.500000000000002 22.500000000000004 4.5000000000000009 6.0026509725338455 5.5000000000000009 4.8322978221268906 40.500000000000007 54.500000000000007 11.500000000000002 7.5000000000000009 8.5000000000000018 10.500000000000002 9.5000000000000018 7.5350293945362292 8.2602342581707315 1.5000000000000002 53.500000000000007 6.4216209458403322 5.5000000000000009 7.1585136945237364 5.7381826048292135 4.5000000000000009 30.500000000000004 5.5000000000000009 3.5000000000000004 9.5000000000000018
decision_type=2 2 2 2 2 2 2 2 2 2 2 2 2 2 2 2 2 2 2 2 2 2 2 2 2 2 2 2 2 2
left_child=1 3 5 6 8 27 -1 -6 9 10 -4 12 18 26 -15 16 -16 -11 -5 -19 21 -10 23 -7 -24 -9 -8 -2 -3 -13
right_child=2 28 4 11 7 22 13 25 20 17 -12 29 -14 14 15 -17 -18 19 -20 -21 -22 -23 24 -25 -26 -27 -28 -29 -30 -31
leaf_value=-0.0066262085222263461 0.011713727474279345 0.010028555244315434 -0.0079336349397637548 0.0549920292322503 -0.0087415335701060484 -0.0025519814869132142 0.0024231040295889898 -0.0011650827506484811 -0.0038650814630229501 -0.00060653103815614382 -0.0016032927391592699 0.037123877731275311 0 -0.005638394835679684 0.0039780467021433927 0.006761363966387858 0.092744110338505062 -0.0012634524131922436 0.036360111188521345 0.0038127353716654929 -0.0057998835413417124 0.00018504748971855651 0.0030480935054269967 0.0097639375375974773 0.014300109347490736 -0.0066244654451090559 0.032474623919015885 0.022126216385557923 0.0006681518249373133 0.0091924186631826346
leaf_weight=125.37435896217357 594.31673336302629 492.586553525005 2591.2720391566982 858.61956139624817 5926.5332044826355 661.47159315185854 47.56929203477921 2340.3845551134436 5349.4233294716687 11287.835343366431 6106.5688381232321 417.62215746531729 17.895538576703984 180.15274733270053 14.498563742614349 141.89291706663789 41.883794602937996 1858.3822264819173 281.71951735252514 4654.6021468628896 4045.5578739373013 3343.5302410403383 549.16208267211914 359.429557707801 675.83653533586767 1882.7278592763469 377.48356432886794 661.19283393310616 698.66402746707899 59.478444704727735
leaf_count=2609 5826 6607 23547 7153 52480 6754 779 21350 57095 99837 46105 4097 336 3306 215 2389 412 22913 2473 41588 37714 37273 6028 3779 7434 19337 5172 6823 9902 837
internal_value=0 0.0259972 -0.00184866 0.0357504 -0.00270831 0.0101995 0.017915 -0.0066485 -0.00168292 -0.000839556 -0.00351742 0.045631 0.0498968 0.0220168 0.0124884 0.0295355 0.0761958 0.000458602 0.0508309 0.00233386 -0.00342006 -0.0022855 0.00601048 0.0016292 0.00946739 -0.00365366 0.0296741 0.0174545 0.00474408 0.0342506
internal_weight=0 3755.44 52888.2 2564.19 49386.8 3501.41 928.855 10149.6 39237.2 26498.7 8697.84 1635.34 1158.23 803.481 378.428 198.275 56.3824 17800.8 1140.34 6512.98 12738.5 8692.95 2245.9 1020.9 1225 4223.11 425.053 1255.51 1191.25 477.101
internal_count=542170 46287 495883 29778 459239 36644 14882 93167 366072 233990 69652 14896 9962 12273 6322 3016 627 164338 9626 64501 132082 94368 23995 10533 13462 40687 5951 12649 16509 4934
is_linear=0
shrinkage=0.05


Tree=11
num_leaves=31
num_cat=0
split_feature=1 0 6 5 0 1 2 0 4 2 2 3 1 2 2 3 4 2 1 1 1 2 0 3 3 1 3 3 3 3
split_gain=195.272 992.765 145.311 230.196 76.108 34.0586 23.6127 23.5366 21.6572 35.4348 21.2127 20.8123 14.2173 13.6296 12.6454 12.1653 11.4063 9.19362 9.05006 8.01313 7.02938 6.78586 16.3673 6.59915 6.59898 6.46929 6.81443 6.1342 64.7002 31.6702
threshold=26.500000000000004 1.0000000180025095e-35 1.5000000000000002 1.5000000000000002 12.500000000000002 22.500000000000004 6.0026509725338455 1.0000000180025095e-35 5.5000000000000009 4.8322978221268906 6.176905692078182 4.5000000000000009 54.500000000000007 7.5350293945362292 6.6612149451924996 5.5000000000000009 4.5000000000000009 3.0201273556387074 42.500000000000007 78.500000000000014 53.500000000000007 6.7153826517152257 11.500000000000002 9.5000000000000018 4.5000000000000009 19.500000000000004 7.5000000000000009 9.5000000000000018 10.500000000000002 7.5000000000000009
decision_type=2 2 2 2 2 2 2 2 2 2 2 2 2 2 2 2 2 2 2 2 2 2 2 2 2 2 2 2 2 2
left_child=5 2 11 12 8 17 -6 15 9 -3 -9 -2 -4 18 24 -7 -8 -1 23 -14 21 22 -16 -11 -10 -19 -27 29 -29 -13
right_child=1 4 3 -5 6 7 16 10 14 13 -12 27 19 -15 20 -17 -18 25 -20 -21 -22 -23 -24 -25 -26 26 -28 28 -30 -31
leaf_value=0 -0.0025722455066832187 -0.0034430829647514073 0.046111592592303803 0.00083460937320001347 -0.0086004661088117645 0.035483633139498975 -0.0011375842808749887 0.00080699648604625146 -0.0078780835893494106 -0.0031849720683317451 0.010695619239792143 0.017404357592733333 0.033428392727274665 0.0022697175600045329 0.0034882428563067433 0.0027002815995605394 -0.0065039513737293747 0.027857965973915599 0.00043272562230285314 0 -0.0041085755106276579 -0.0003306158307116963 0.057939820382786722 0.0036156111854024776 -0.0038119645315819288 0.014063903340847584 0.02962853663478018 0.063035640098125567 0.0055981440840414424 -0.00088712504812992669
leaf_weight=61.073545560764614 170.79290387628134 8667.5813152639312 1098.1495428762864 440.65024517121492 5874.9518649512902 105.30703814665321 2337.6594176868093 1136.0817871523905 1314.0137412497425 3627.446825441788 1123.0691276450525 904.2344879405573 478.79063836007845 6528.418555316166 175.02734205214074 58.382649676233996 1870.2970057619968 222.89704079431249 7291.003186843649 14.654365083726587 1309.7206114951987 2767.6007349985885 9.0366030207369459 362.54093569872202 7119.6992912780843 926.84137087693671 110.22820860956563 66.235007173148915 179.8940730796312 291.1875611616997
leaf_count=610 3192 69652 8901 5879 52480 1163 21350 12108 13665 35459 11887 12267 4751 64501 2207 838 19337 2377 60515 183 12094 30731 95 3863 73290 9075 1185 699 2916 4900
internal_value=0 -0.000780829 0.0243671 0.0333127 -0.00264912 0.0110243 -0.00652825 0.00732231 -0.00164447 -0.000819928 0.00583019 0.0128664 0.0421334 0.000446411 -0.00334689 0.0255898 -0.00357753 0.0175836 -0.000591844 0.032323 -0.00106224 0.000228894 0.00936934 -0.0025114 -0.00447562 0.0184991 0.0161106 0.0148374 0.0232505 0.0128048
internal_weight=0 52899.6 3644.59 2032.24 49255 3743.88 10082.9 2422.84 39172.1 26477 2259.15 1612.34 1591.59 17809.4 12695.1 163.69 4207.96 1321.04 11281 493.445 4261.39 2951.66 184.064 3989.99 8433.71 1259.97 1037.07 1441.55 246.129 1195.42
internal_count=542170 502927 43688 19714 459239 39243 93167 25996 366072 233990 23995 23974 13835 164338 132082 2001 40687 13247 99837 4934 45127 33033 2302 39322 86955 12637 10260 20782 3615 17167
is_linear=0
shrinkage=0.05


Tree=12
num_leaves=31
num_cat=0
split_feature=0 5 1 6 0 3 1 3 2 4 2 1 2 3 3 3 3 2 5 1 3 2 4 4 1 1 4 4 2 3
split_gain=942.772 250.918 195.786 126.2 73.2084 35.1808 34.6802 25.8306 22.8613 20.714 33.8373 27.6998 19.7793 15.7238 44.4868 62.692 13.6914 12.9426 14.1388 12.4533 12.4427 11.1977 10.9631 10.3257 11.2157 8.91232 8.81177 8.74844 8.31102 7.5567
threshold=1.0000000180025095e-35 1.5000000000000002 26.500000000000004 1.5000000000000002 12.500000000000002 4.5000000000000009 21.500000000000004 11.500000000000002 6.0026509725338455 5.5000000000000009 4.8322978221268906 40.500000000000007 6.176905692078182 7.5000000000000009 8.5000000000000018 10.500000000000002 9.5000000000000018 7.4413202177204436 1.5000000000000002 58.500000000000007 5.5000000000000009 6.4216209458403322 4.5000000000000009 1.5000000000000002 78.500000000000014 26.500000000000004 2.5000000000000004 3.5000000000000004 3.0201273556387074 4.5000000000000009
decision_type=2 2 2 2 2 2 2 2 2 2 2 2 2 2 2 2 2 2 2 2 2 2 2 2 2 2 2 2 2 2
left_child=1 3 6 5 9 -1 -2 23 -6 10 11 -4 28 25 -15 16 -16 29 -19 21 -14 -11 -10 -5 -25 -7 -27 -3 -8 -12
right_child=2 27 4 7 8 13 12 -9 22 19 17 -13 20 14 15 -17 -18 18 -20 -21 -22 -23 -24 24 -26 26 -28 -29 -30 -31
leaf_value=-0.00654455540067575 0.018172516919585793 0.00935469500521483 -0.0077408849160552759 0.0056323468536485692 -0.0084604685290849881 0 -0.0088007803483945782 0 -0.001110704022884143 -0.003750573874652087 -0.0037439985485566347 -0.0014859335675669633 0.0050628280379938738 -0.0055198045998538598 0.0039192268200963585 0.006393250905756479 0.078166144063531728 -0.0013982201239430851 0.0036196077975802531 -0.0063435828787168887 0.015507808654254204 -0.00024748496690021182 -0.0063848567257168073 0.041644780449594625 0 0.011229472916052467 0.033037475306940588 0.00042550467366682154 0.0035387422470824562 -3.7183691842285067e-05
leaf_weight=124.78098849707749 888.84688045899384 502.44464211398736 2561.958866831963 36.365684763179161 5824.6412995473947 14.923747129272668 139.19006739574252 31.731474275351502 2335.0016280649579 6138.4167199342628 1624.8717078836053 6075.8305950242793 610.25619220017688 179.00026200211141 14.543573255068621 143.65425391087774 48.873575146542862 1905.3908367432305 4827.0141398238484 2681.3555227059405 713.55204322451027 3832.792194613663 1858.1721397447982 1699.627345219953 14.006654041411819 101.83180818980327 328.43488882377278 705.44883553643012 1219.6150748978253 9459.9010777478688
leaf_count=2609 8684 6607 23547 290 52480 271 1377 580 21350 65394 14344 46105 6167 3306 215 2389 412 23498 42908 24500 7493 42188 19337 13851 175 1406 4274 9902 12923 83588
internal_value=0 0.0235515 -0.00176519 0.03192 -0.00259059 0.0167089 0.0095139 0.0398659 -0.00640943 -0.0016062 -0.000799946 -0.00336939 0.00652797 0.0204652 0.0117636 0.0273068 0.0661744 0.000435395 0.00216982 -0.00327472 0.0108987 -0.00242528 -0.00350274 0.0406784 0.0412781 0.0272496 0.0286138 0.00433912 0.00208698 -0.000600745
internal_weight=0 3945.67 52696.8 2737.77 49125.3 956.043 3571.46 1781.73 10017.8 39107.5 26455 8637.79 2682.61 831.262 386.072 207.071 63.4171 17817.2 6732.4 12652.6 1323.81 9971.21 4193.17 1750 1713.63 445.19 430.267 1207.89 1358.81 11084.8
internal_count=542170 46287 495883 29778 459239 14882 36644 14896 93167 366072 233990 69652 27960 12273 6322 3016 627 164338 66406 132082 13660 107582 40687 14316 14026 5951 5680 16509 14300 97932
is_linear=0
shrinkage=0.05


Tree=13
num_leaves=31
num_cat=0
split_feature=0 5 1 6 0 2 3 2 3 2 1 1 5 3 3 3 1 5 4 3 1 3 2 1 4 1 4 0 4 3
split_gain=877.691 224.527 185.554 108.777 74.9363 46.3681 32.7062 24.6712 22.9671 18.0253 15.1402 14.7841 20.215 13.7526 41.4752 54.9635 13.6716 17.3636 17.9158 16.9444 11.0535 10.5562 9.5373 8.53584 8.48433 9.90749 8.18707 8.1691 7.99229 7.97248
threshold=1.0000000180025095e-35 1.5000000000000002 24.500000000000004 1.5000000000000002 12.500000000000002 6.4126386124386281 4.5000000000000009 6.4907223831728951 11.500000000000002 6.6086749342317344 22.500000000000004 28.500000000000004 1.5000000000000002 7.5000000000000009 8.5000000000000018 10.500000000000002 42.500000000000007 1.5000000000000002 4.5000000000000009 9.5000000000000018 26.500000000000004 9.5000000000000018 8.4035752346073682 43.500000000000007 1.5000000000000002 78.500000000000014 3.5000000000000004 2.5000000000000004 5.5000000000000009 4.5000000000000009
decision_type=2 2 2 2 2 2 2 2 2 2 2 2 2 2 2 2 2 2 2 2 2 2 2 2 2 2 2 2 2 2
left_child=1 3 9 6 5 16 -1 -6 24 10 29 -7 -13 23 -15 21 19 -18 27 20 -4 -16 -14 -8 -5 -26 -3 -19 -9 -2
right_child=2 26 4 8 7 11 13 28 -10 -11 -12 12 22 14 15 -17 17 18 -20 -21 -22 -23 -24 -25 25 -27 -28 -29 -30 -31
leaf_value=-0.0064313468986646541 0.0022610212058531225 0.0090410437902127931 0.0016171906997658155 0.0054903747608197632 -0.0080103126358910953 0.0060871523207812091 0.015026624311906704 -0.0010775720430138255 0 0.017791626136257444 0.0014859310257072005 -0.0029406000056971613 0.00060233216071949871 -0.0054172464014257751 0.0038449370314323633 0.0062040872584978998 -0.0055386055689311464 0.0038481361258800133 -0.0038253914143452647 0.0027046697089292801 -0.0055493369625962095 0.071384447034194054 0.0044942972265842708 0.032735803948849611 0.038944762493312163 0 0.00041487390815768188 -0.000409347544979062 -0.0064211830749571017 0.015246468547944689
leaf_weight=123.96701905177906 194.8741111549316 507.16691148333484 530.75235137471464 36.571087003801949 6648.8111079906812 1156.6397727444419 197.4964980216464 2482.2685869485722 31.731474275351502 905.1634822889464 570.25634641671786 3761.0819085683324 9534.3404246856808 178.01493650407065 14.600684587378053 144.57561578345485 2649.2787488358445 1325.5852903621271 3933.0344021032215 731.96269377961289 7528.3408797042794 52.847109346301295 1926.9074761566008 259.87579769565491 1771.9024517281214 14.006654041411819 705.7490705367527 7041.7949510956532 1044.2781987485359 640.35696781380102
leaf_count=2609 1872 6607 5573 290 60738 13054 2730 24003 580 8706 5920 46262 85924 3306 215 2389 31818 9856 34851 7996 75149 412 17556 3221 13851 175 9902 49441 10974 6190
internal_value=0 0.0224413 -0.00172527 0.030161 -0.00236575 -0.00138678 0.0160582 -0.00620216 0.0373472 0.0120921 0.00820503 0.000649656 0.000220572 0.0196096 0.0113985 0.0261307 -0.00279992 -0.00185494 -0.0010424 -0.00438123 -0.00505151 0.0612803 0.00127661 0.0258849 0.0380838 0.038614 0.00421908 0.000244097 -0.00272678 0.0125011
internal_weight=0 4038.51 52605.7 2825.59 50295.1 40119.7 971.378 10175.4 1854.21 2310.65 1405.49 16379 15222.3 847.411 390.038 212.023 23740.7 14949.7 12300.4 8791.06 8059.09 67.4478 11461.2 457.372 1822.48 1785.91 1212.92 8367.38 3526.55 835.231
internal_count=542170 46287 495883 29778 473195 377480 14882 95715 14896 22688 13982 162796 149742 12273 6322 3016 214684 125966 94148 88718 80722 627 103480 5951 14316 14026 16509 59297 34977 8062
is_linear=0
shrinkage=0.05


Tree=14
num_leaves=31
num_cat=0
split_feature=1 0 5 6 0 2 3 1 2 3 2 1 3 3 3 4 5 0 2 1 4 1 1 2 3 3 3 3 4 0
split_gain=164.778 804.596 196.14 78.7489 67.6842 40.8858 28.1611 27.1017 22.1374 19.9145 17.1766 22.0013 15.6015 37.8756 46.3217 13.789 13.0359 12.5222 20.3575 10.2408 10.1421 12.7779 9.7763 9.14146 9.66539 11.2249 16.7721 8.93146 8.87679 8.09383
threshold=26.500000000000004 1.0000000180025095e-35 1.5000000000000002 1.5000000000000002 12.500000000000002 7.5350293945362292 4.5000000000000009 22.500000000000004 6.2334293711344477 11.500000000000002 4.7405652883788738 40.500000000000007 7.5000000000000009 8.5000000000000018 10.500000000000002 4.5000000000000009 1.5000000000000002 17.500000000000004 6.0026509725338455 54.500000000000007 4.5000000000000009 42.500000000000007 56.500000000000007 8.2602342581707315 4.5000000000000009 5.5000000000000009 8.5000000000000018 5.5000000000000009 4.5000000000000009 1.0000000180025095e-35
decision_type=2 2 2 2 2 2 2 2 2 2 2 2 2 2 2 2 2 2 2 2 2 2 2 2 2 2 2 2 2 2
left_child=7 2 3 6 5 10 -2 -1 -9 19 11 -3 -8 -14 -15 -13 27 18 -6 23 21 -12 -17 24 -5 -26 -27 -7 -20 -10
right_child=1 4 -4 9 17 16 12 8 29 -11 20 15 13 14 -16 22 -18 -19 28 -21 -22 -23 -24 -25 25 26 -28 -29 -30 -31
leaf_value=0.015671888559426275 -0.0063112451082113878 -0.0071956015413606094 0.0036467022307316941 0.030967962619850721 -0.0074367045985446458 -0.0057335580343663376 0.025880738314546455 0.0016512965393757194 0.025070966120467345 0 -0.0027706219548926632 -0.00090532684562091154 -0.005614666841946358 0.056153873706996017 0.0059240433605504249 -0.0027814817529235236 0.002687642676564855 -0.0097962105769127603 0 0.027172413211437249 -0.0026679194095909123 0.0010146420725231553 -0.0091027931663737252 0.027226001877007758 0.056983018256935331 0.024527345578945283 0.053015019767746099 0.00053168513599607904 -0.0050713110592083372 0.0096585317455907399
leaf_weight=1383.7507117983187 106.91393043077551 3587.8024757205858 1163.3493027097429 322.35271150385961 4480.7774033069436 845.37332861556206 453.86073722923175 1220.7130487642135 111.76236136787338 30.036024697241373 3420.53965868667 5389.9263424436795 174.71663611009717 70.062064302270301 144.33459674817277 1746.2779265774298 6273.0723746648291 2030.2575061930984 1894.9767822460271 536.13925170473522 8786.2679669535137 6299.7784065725864 1074.6128877433366 301.29991333466023 272.43048361490946 206.54257622576552 123.97924561612308 1562.7696783412248 1487.1496622249251 1141.7971867408487
leaf_count=13247 2268 35747 15672 2481 41204 11025 5680 13054 1223 551 31847 39357 3248 616 2369 17899 58104 18855 17345 4690 93446 48836 10747 2228 1377 1650 858 19064 15763 11719
internal_value=0 -0.000728906 0.0210807 0.0283728 -0.00247879 -0.00153407 0.0161377 0.00996559 0.006656 0.0346502 -0.0024031 -0.0039035 0.0192506 0.0106698 0.024583 -0.00243539 0.00147603 -0.00617751 -0.00520928 0.035343 -0.00143454 -0.000297926 -0.00527804 0.0385654 0.0417948 0.0468039 0.036744 -0.00159589 -0.00218938 0.0113322
internal_weight=0 52785.6 3906.02 2742.67 48879.6 38986.4 949.888 3858.02 2474.27 1792.78 30305.2 11798.6 842.974 389.113 214.397 8210.82 8681.22 9893.16 7862.9 1762.74 18506.6 9720.32 2820.89 1226.6 925.305 602.952 330.522 2408.14 3382.13 1253.56
internal_count=542170 502927 43688 28016 459239 366072 14181 39243 25996 13835 277879 103750 11913 6233 2985 68003 88193 93167 74312 13284 174129 80683 28646 8594 6366 3885 2508 30089 33108 12942
is_linear=0
shrinkage=0.05


Tree=15
num_leaves=31
num_cat=0
split_feature=0 5 1 6 2 0 3 1 4 3 3 1 4 0 2 2 1 3 3 3 1 3 3 4 1 1 0 5 3 3
split_gain=765.578 182.626 166.433 83.7377 62.6719 44.054 28.5057 27.919 19.9167 19.6814 18.3992 14.7529 16.9006 14.4675 13.1645 12.3692 12.2265 10.5388 36.0865 42.5434 10.3595 8.22976 8.18334 7.65929 7.59422 7.07651 7.04658 7.53042 6.69854 11.0653
threshold=1.0000000180025095e-35 1.5000000000000002 26.500000000000004 1.5000000000000002 5.9776183370995293 12.500000000000002 4.5000000000000009 21.500000000000004 4.5000000000000009 9.5000000000000018 5.5000000000000009 40.500000000000007 4.5000000000000009 14.500000000000002 4.7405652883788738 3.0201273556387074 53.500000000000007 7.5000000000000009 8.5000000000000018 10.500000000000002 58.500000000000007 4.5000000000000009 9.5000000000000018 3.5000000000000004 32.500000000000007 41.500000000000007 16.500000000000004 2.5000000000000004 6.5000000000000009 8.5000000000000018
decision_type=2 2 2 2 2 2 2 2 2 2 2 2 2 2 2 2 2 2 2 2 2 2 2 2 2 2 2 2 2 2
left_child=1 3 7 6 5 11 -1 -2 21 25 -9 14 -13 16 -4 -12 -10 24 -19 22 -14 -6 -20 -3 -8 28 27 -23 -5 -30
right_child=2 23 4 9 8 -7 17 10 13 -11 15 12 20 -15 -16 -17 -18 18 19 -21 -22 26 -24 -25 -26 -27 -28 -29 29 -31
leaf_value=-0.0062611428359221474 0.016172475957620027 0.0086064703519341031 -0.0070685271020450996 0.043896779800117927 -0.002083803214091877 -0.0080520299451213757 0.0045384378216952216 0.0012139196683551214 -0.00019250396777076897 0.014814582337939201 -0.0080690708133438257 -0.00067617935680198645 -0.0026948413503641404 -0.0077290832059293537 -0.0022337796374188065 0.01077141281715867 -0.0040713066800135934 -0.0052153102337843763 0.0027209150129488997 0.0058462412847885342 -0.007552169764190507 0.00011764233323902623 0.061236168428942028 0.00030060541053553483 0.026238985811998256 0.030822972732516503 -0.0041741026275520033 0.0029218001480483913 0.011075962661048105 0.045123625344780115
leaf_weight=122.76193005760433 932.57015879353276 513.85617941257078 3562.0787682595546 562.50889363593888 1995.932296564948 5620.0741913428064 74.33372948563192 1242.8240046920837 6334.900986909779 186.46860978734912 75.209034256811719 8582.2191790834186 3699.9048904692754 1048.4080176845018 2587.5123424665653 1418.8303134403541 3069.4509336519986 176.10496162471827 15.502371741808018 146.34965868550353 1714.0178864939953 4474.1967066131183 59.962849883013405 708.9922964911093 406.81916918826755 1093.1706452964572 514.46246726048412 5557.1233770052204 100.73547737259651 45.312916503753513
leaf_count=2609 8684 6607 35747 3561 18363 51885 1062 12331 70351 2126 766 63566 38638 11371 27512 14863 28479 3306 215 2389 16879 43922 412 9902 4889 7994 4755 47771 1029 186
internal_value=0 0.0204882 -0.00164772 0.0271443 -0.00242412 -0.00411829 0.0148244 0.00859881 -0.000516342 0.0331729 0.00590811 -0.00300838 -0.00208519 -0.00213277 -0.00507193 0.00965423 -0.00148198 0.0180226 0.0106942 0.0239548 -0.00427786 0.000815387 0.052959 0.00398458 0.0234169 0.034893 0.00138414 0.00169203 0.0405044 0.0246302
internal_weight=0 4212.88 52429.7 2990.03 48760.3 25765.8 1001.83 3669.43 22994.5 1988.2 2736.86 20145.7 13996.1 10452.8 6149.59 1494.04 9404.35 879.073 397.92 221.815 5413.92 12541.7 75.4652 1222.85 481.153 1801.73 10545.8 10031.3 708.557 146.048
internal_count=542170 46287 495883 29778 459239 234227 14882 36644 225012 14896 27960 182342 119083 110201 63259 15629 98830 12273 6322 3016 55517 114811 627 16509 5951 12770 96448 91693 4776 1215
is_linear=0
shrinkage=0.05


Tree=16
num_leaves=31
num_cat=0
split_feature=0 5 1 6 0 2 1 2 3 2 1 4 2 5 3 3 1 1 2 3 3 4 1 1 1 4 0 2 4 3
split_gain=715.847 165.158 157.635 73.4661 62.7977 38.0843 26.615 20.1976 17.3144 15.7854 20.3232 12.7768 12.3933 12.2059 10.3961 9.82241 9.25423 9.14448 8.83481 10.0963 8.5187 8.23413 10.7633 9.13822 7.56964 7.17605 6.86846 6.80246 6.54189 5.84762
threshold=1.0000000180025095e-35 1.5000000000000002 26.500000000000004 1.5000000000000002 12.500000000000002 7.5350293945362292 23.500000000000004 6.4907223831728951 11.500000000000002 4.7405652883788738 40.500000000000007 4.5000000000000009 6.6086749342317344 1.5000000000000002 4.5000000000000009 4.5000000000000009 56.500000000000007 54.500000000000007 3.0201273556387074 5.5000000000000009 5.5000000000000009 4.5000000000000009 53.500000000000007 42.500000000000007 30.500000000000004 3.5000000000000004 14.500000000000002 7.1585136945237364 5.5000000000000009 9.5000000000000018
decision_type=2 2 2 2 2 2 2 2 2 2 2 2 2 2 2 2 2 2 2 2 2 2 2 2 2 2 2 2 2 2
left_child=1 3 6 -1 5 9 12 -6 17 10 -4 -12 15 20 -11 -2 -13 -5 -8 27 -7 23 29 24 -16 -3 -21 -20 -9 -23
right_child=2 25 4 8 7 13 18 28 -10 14 11 16 -14 -15 21 -17 -18 -19 19 26 -22 22 -24 -25 -26 -27 -28 -29 -30 -31
leaf_value=0.014275827930632088 0 0.0083240284559608791 -0.0069428063285303879 0.034586127789688878 -0.0076337407178915517 -0.0055993006883081784 -0.0097813330358823974 -0.0012161755929382318 0 -0.0041642282628546693 -0.0008675135089969044 -0.0026609303190637461 0.018048706084382946 0.002607275247442092 0.0029761578694725037 0.011428977532824621 -0.0088519838953915377 0.024356414369948235 -0.0032337267674513097 0.0096131047307028861 0.00053227385715492884 -0.0013627484315859198 -0.0048807117340318616 0.001440373234180952 -0.0032822081024032773 0.00029313140105897864 -0.0027551931802878341 0.0062277242668554254 -0.0061837305809801808 0.0039547811016849002
leaf_weight=1015.9933098157635 265.72110643069027 518.29775385576067 3536.9889091051591 1454.170496160863 6379.4636000462051 839.41884514957201 95.585227532836143 2401.2792083997047 32.220347343129106 2854.8947469489067 5381.4089789231657 1736.7408903618925 713.99008647399023 6291.4695559163811 566.75430401758058 877.77168221148895 1057.6260018191242 567.26391597650945 471.54885094327619 875.58616821240867 1562.7332217575749 4337.3508153816219 2345.5246821939945 5403.5839822162525 2385.7022470436059 709.20545625744853 97.769180500123184 302.93638195301173 997.09545401507057 566.38454915571492
leaf_count=14882 2518 6607 35747 9626 59313 11025 973 23212 580 27152 39357 17899 6499 58104 5751 8291 10747 4690 4861 9255 19064 48731 22314 41812 21894 9902 1167 3080 10642 6475
internal_value=0 0.0196011 -0.00161035 0.0257995 -0.00237076 -0.00146226 0.00831509 -0.0059577 0.0313308 -0.00230483 -0.00375021 -0.0023395 0.0125796 0.00143853 -0.00137577 0.00889558 -0.00509295 0.0319146 0.00387647 0.00477592 -0.00153813 -0.000851079 -0.00208575 0.000197053 -0.00200879 0.00387598 0.00815529 0.000235553 -0.0027428 -0.000702746
internal_weight=0 4297.15 52345.3 3069.65 48644.4 38866.6 3700.91 9777.84 2053.65 30173 11712.8 8175.78 1857.48 8693.62 18460.2 1143.49 2794.37 2021.43 1843.43 1747.84 2402.15 15605.3 7249.26 8356.04 2952.46 1227.5 973.355 774.485 3398.37 4903.74
internal_count=542170 46287 495883 29778 459239 366072 36644 93167 14896 277879 103750 68003 17308 88193 174129 10809 28646 14316 19336 18363 30089 146977 77520 69457 27645 16509 10422 7941 33854 55206
is_linear=0
shrinkage=0.05


Tree=17
num_leaves=31
num_cat=0
split_feature=1 0 5 0 6 2 1 2 1 4 1 3 0 2 2 5 3 3 3 1 3 3 3 1 2 2 2 2 2 0
split_gain=138.329 659.933 145.7 60.3251 52.9227 36.3221 22.0872 19.5406 16.6956 23.4962 19.7445 15.242 14.1611 15.641 12.9846 11.5753 9.07545 13.8583 17.8165 8.77915 22.981 8.29805 8.16405 7.48795 7.47028 7.41752 9.11437 7.39723 7.32272 7.27397
threshold=26.500000000000004 1.0000000180025095e-35 1.5000000000000002 12.500000000000002 1.5000000000000002 7.5350293945362292 22.500000000000004 7.1585136945237364 39.500000000000007 4.5000000000000009 53.500000000000007 11.500000000000002 1.0000000180025095e-35 6.176905692078182 4.7405652883788738 1.5000000000000002 4.5000000000000009 6.5000000000000009 8.5000000000000018 63.500000000000007 9.5000000000000018 7.5000000000000009 5.5000000000000009 30.500000000000004 3.0201273556387074 6.4126386124386281 6.892639579790325 8.6017170655673123 3.6762205501217919 17.500000000000004
decision_type=2 2 2 2 2 2 2 2 2 2 2 2 2 2 2 2 2 2 2 2 2 2 2 2 2 2 2 2 2 2
left_child=6 2 4 5 -2 8 24 29 14 -10 25 16 -8 -14 -3 22 28 -18 21 20 -20 -19 -7 -16 -1 -11 -27 -22 -6 -5
right_child=1 3 -4 7 11 15 12 -9 9 10 -12 -13 13 -15 23 -17 17 18 19 -21 27 -23 -24 -25 -26 26 -28 -29 -30 -31
leaf_value=0 0.014363293059930508 -0.0066655698032388319 0.0033332355043689935 -0.0062365281465812834 0 -0.0054922856662141363 0.019310628322470266 -0.0018937203548585824 -8.4777014484873036e-05 -0.0024197334653850559 -0.0059422878952518493 0 0.00044791364616358963 0.0088132195223252462 0.0005694854513107571 0.0025359185803506493 0.037852650260662708 0.019054210081542476 0.054648559902206677 0.0053727058543843985 0.026145882858105707 0 0.00051884261754656645 -0.0036413059673121567 0.014816944576319428 0.0063657124154212416 -0.0018141441001071448 0 0.024135033687067136 -0.010430160116704671
leaf_weight=64.846606439852621 993.23337700910633 3245.0515210350568 1176.3816076142248 5702.1047657860036 33.007148563163355 834.73181887617102 188.04237030196236 2476.6886029046145 12571.760290079488 3468.0551216918684 4232.4417991380324 30.484308070153929 1152.3272943211487 1186.3279179548845 1331.931389567384 6307.8944891075953 767.64366309589241 183.41053717106115 115.3602068067994 42.702666534110904 99.506300401175395 79.160815605777316 1563.5652489222703 3951.2614120585495 1377.6830830994295 620.04395052877953 684.05488878639881 37.175437353085726 585.79673385270871 1541.4655685564212
leaf_count=610 14181 33189 15672 53596 255 11025 2001 25258 95894 36596 41588 551 12108 11887 15241 58104 3899 1502 466 348 909 890 19064 41699 12637 6443 7229 349 4666 14313
internal_value=0 -0.000678271 0.0184504 -0.00231831 0.0243525 -0.00142868 0.0089926 -0.00584599 -0.0022537 -0.00149793 -0.003447 0.0292037 0.00600467 0.00479123 -0.00413934 0.00140063 0.0297608 0.0326869 0.0248095 0.033718 0.0374559 0.0134101 -0.00150081 -0.00254263 0.0140301 -0.00118622 0.00193671 0.0194701 0.0228598 -0.0071664
internal_weight=0 52674.9 4143.86 48531.1 2967.48 38810.8 3969.23 9720.26 30104.6 21576.4 9004.6 1974.25 2526.7 2338.66 8528.24 8706.19 1943.76 1324.96 557.316 294.745 252.042 262.571 2398.3 5283.19 1442.53 4772.15 1304.1 136.682 618.804 7243.57
internal_count=542170 502927 43688 459239 28016 366072 39243 93167 277879 187750 91856 13835 25996 23995 90129 88193 13284 8363 4464 2072 1724 2392 30089 56940 13247 50268 13672 1258 4921 67909
is_linear=0
shrinkage=0.05


Tree=18
num_leaves=31
num_cat=0
split_feature=0 5 2 1 1 0 3 6 3 3 3 4 1 1 2 3 1 1 4 3 3 1 1 1 4 1 1 5 2 3
split_gain=626.725 135.985 72.5164 85.3826 59.5272 46.1505 23.1638 45.9184 49.6041 24.0837 34.1467 17.586 13.742 12.2483 8.53603 8.09292 11.2668 13.3375 12.6117 11.8179 8.06867 7.86965 7.07756 6.81014 6.71821 6.41201 7.29748 11.6752 11.2755 6.39068
threshold=1.0000000180025095e-35 1.5000000000000002 6.1580371870387447 26.500000000000004 22.500000000000004 12.500000000000002 10.500000000000002 1.5000000000000002 9.5000000000000018 7.5000000000000009 4.5000000000000009 4.5000000000000009 53.500000000000007 23.500000000000004 5.9776183370995293 4.5000000000000009 26.500000000000004 39.500000000000007 4.5000000000000009 9.5000000000000018 6.5000000000000009 54.500000000000007 57.500000000000007 30.500000000000004 3.5000000000000004 28.500000000000004 40.500000000000007 2.5000000000000004 7.5350293945362292 8.5000000000000018
decision_type=2 2 2 2 2 2 2 2 2 2 2 2 2 2 2 2 2 2 2 2 2 2 2 2 2 2 2 2 2 2
left_child=1 6 4 13 20 15 7 8 9 10 -1 25 -13 -4 -8 -6 -17 19 -19 -18 -2 -9 -20 -12 -3 -5 28 -28 -27 -30
right_child=2 24 3 11 5 -7 14 21 -10 -11 23 12 -14 -15 -16 16 17 18 22 -21 -22 -23 -24 -25 -26 26 27 -29 29 -31
leaf_value=-0.0066580088896428212 0.0063345705107603796 0.0079240206668918511 0.015318850720276998 0.0068446258779212886 -0.0049240414560433295 -0.0074788334984686629 -0.0044040461628434757 0.030958681883884127 0.054589632996411092 -0.0039802603326082988 0 -0.00057345002329756394 -0.0046065372760924614 0.0065202766322816482 0.014931356476415358 0.0038072672160937675 -0.0053020266210700205 -0.00026072906034200891 -0.0020702619722361231 0.0027279010630700375 0.018646874163259993 0.021695033300678807 -0.0062596536717316438 0.023015058845766073 0.00018664992388806826 -0.0043649669600139586 -0.00046614641860393409 0.0034196562149077995 0 0.0079890205616614998
leaf_weight=125.60689233324956 563.33782968460582 524.71919003606308 874.32938342145644 447.25055230944417 3126.8157546695729 6041.2046183239727 90.945389102038462 1543.8337828820804 65.608788537676446 196.28524063446093 53.081835587276146 6669.2996954630362 3185.8732882092008 965.11489390942734 102.21576453745365 740.16607117070816 4701.1995916007436 8186.4979812230158 3328.5388444571581 468.61273339169566 223.80433290649671 592.78102774202125 1616.4073568771419 453.60078483156394 712.2561462392332 1538.9025313852471 3524.6885523988749 4066.3197496705106 1618.8063928072806 295.5419650573167
leaf_count=2609 5053 6607 7750 4984 29033 57431 1424 9571 412 3521 779 74645 29545 9794 1657 7653 48951 61276 34776 5339 2094 4633 16288 5172 9902 14803 33433 32487 17138 3410
internal_value=0 0.0179725 -0.001538 0.000538994 -0.00320541 -0.00359001 0.0233818 0.0244719 0.0143093 0.0104195 0.0151966 -0.000344153 -0.00190001 0.0108559 0.00500668 -0.00251905 -0.00211184 -0.00236361 -0.00149236 -0.00453263 0.0102299 0.0285667 -0.00348748 0.0210214 0.00365749 0.000973136 0.000712782 0.00159038 -0.00115785 0.00132318
internal_weight=0 4460.93 52182.7 23186.1 28996.6 28209.4 3223.96 3030.8 894.184 828.575 632.29 21346.7 9855.17 1839.44 193.161 22168.2 19041.4 18301.3 13131.4 5169.81 787.142 2136.61 4944.95 506.683 1236.98 11491.5 11044.3 7591.01 3453.25 1914.35
internal_count=542170 46287 495883 227989 267894 260747 29778 26697 12493 12081 8560 210445 104190 17544 3081 203316 174283 166630 112340 54290 7147 14204 51064 5951 16509 106255 101271 65920 35351 20548
is_linear=0
shrinkage=0.05


Tree=19
num_leaves=31
num_cat=0
split_feature=0 1 5 0 6 2 3 1 2 3 1 4 3 3 3 5 2 4 1 2 2 3 1 4 4 1 4 3 3 3
split_gain=586.693 134.132 123.49 56.4056 51.4716 33.6525 24.1128 21.6404 18.0695 15.9801 15.3039 18.1455 13.3468 12.0875 11.9203 11.0848 10.7031 9.30768 9.2819 8.59594 8.22644 8.21457 7.59971 7.20166 6.61862 6.94954 6.30093 6.27905 5.62551 14.513
threshold=1.0000000180025095e-35 26.500000000000004 1.5000000000000002 12.500000000000002 1.5000000000000002 6.4126386124386281 4.5000000000000009 21.500000000000004 6.0026509725338455 5.5000000000000009 40.500000000000007 4.5000000000000009 11.500000000000002 9.5000000000000018 4.5000000000000009 2.5000000000000004 3.0201273556387074 4.5000000000000009 59.500000000000007 7.2506352600451018 4.7405652883788738 7.5000000000000009 63.500000000000007 2.5000000000000004 1.5000000000000002 78.500000000000014 3.5000000000000004 8.5000000000000018 4.5000000000000009 5.5000000000000009
decision_type=2 2 2 2 2 2 2 2 2 2 2 2 2 2 2 2 2 2 2 2 2 2 2 2 2 2 2 2 2 2
left_child=2 7 4 5 6 10 -1 -2 -5 19 13 22 24 20 -7 27 -11 -10 -13 -9 -3 23 -12 -8 -6 28 -4 -16 -26 -30
right_child=1 3 26 8 12 14 21 9 17 16 11 18 -14 -15 15 -17 -18 -19 -20 -21 -22 -23 -24 -25 25 -27 -28 -29 29 -31
leaf_value=-0.0065435034736289373 0.014012501746032708 -0.0070480689512418624 0.0076691231058641472 -0.007542159086191296 0.0017087136517292313 -0.0026813107075692993 0.0064088509737887578 -0.0017062862296978818 -0.00083675490952460775 -0.0079374304266370994 -0.001172072932317683 -0.0025018560281635255 0 0.0021121916858560168 -0.0012881443708509565 0.0023594775628766407 0.0095844552884238911 -0.0057564396585363681 -0.0068879543545504532 0.0071756429397084572 -0.0032467593658206482 0.0090907169105893196 0.0020333711809997234 0.023598225509168239 0.022208764037647651 0 0.00018202986102720602 0.0028398856286121527 0.037169153110931413 0.024721441546611666
leaf_weight=124.77337889227783 984.84705819207011 3205.3774800905376 528.8935933157336 5514.8316040335048 42.851214806200005 2584.1562100514711 121.26471192931058 887.94560992158949 2308.2546955115977 74.564471697492991 7301.984107430093 4365.9931682343595 32.522503781423438 572.93697691697162 5047.4708172149549 7140.5329741091118 1468.0256206799531 1796.7014542681864 1824.6029861345305 375.04346951772459 3105.6752818094683 417.08501393935876 2443.0940148490481 395.97861845919397 704.27213473070879 15.878217501915058 712.38910151581513 1100.6047631602851 606.69781417108607 837.94603685953189
leaf_count=2609 8684 32681 6607 52480 290 26026 1488 8682 21350 766 56566 46098 580 6392 52902 65845 14863 19337 18097 3649 32929 6322 15986 4463 5269 175 9902 12550 2783 5799
internal_value=0 -0.00150222 0.0172233 -0.00221636 0.0222839 -0.00135711 0.0126953 0.00753388 -0.00564788 0.00515728 -0.00258779 -0.00171519 0.0266706 -0.00457467 0.00039999 0.00101541 0.00857417 -0.00304526 -0.00383364 0.000800565 -0.00521517 0.0155086 -0.000347014 0.0200986 0.0271446 0.0275484 0.00355923 -0.00051411 0.0277949 0.0302517
internal_weight=0 52102.6 4540.55 48312.2 3299.27 38692.4 1059.1 3790.43 9619.79 2805.58 22819.7 15935.7 2240.17 6883.99 15872.8 13288.6 1542.59 4104.96 6190.6 1262.99 6311.05 934.328 9745.08 517.243 2207.65 2164.79 1241.28 6148.08 2148.92 1444.64
internal_count=542170 495883 46287 459239 29778 366072 14882 36644 93167 27960 208749 136747 14896 72002 157323 131297 15629 40687 64195 12331 65610 12273 72552 5951 14316 14026 16509 65452 13851 8582
is_linear=0
shrinkage=0.05


Tree=20
num_leaves=31
num_cat=0
split_feature=1 5 0 2 0 1 3 3 3 3 3 1 4 0 0 2 2 1 2 1 2 1 2 0 3 4 0 3 1 2
split_gain=116.852 95.1666 554.551 54.5704 43.1267 26.1291 21.8424 18.5691 18.4147 76.3826 19.6133 18.412 16.0559 12.1133 11.6177 10.9083 9.15347 8.18596 8.07363 7.63696 6.80402 7.35532 9.09751 6.95355 6.76027 6.61766 6.57053 8.38962 6.50638 6.31764
threshold=26.500000000000004 1.5000000000000002 1.0000000180025095e-35 6.1580371870387447 12.500000000000002 42.500000000000007 8.5000000000000018 10.500000000000002 8.5000000000000018 7.5000000000000009 4.5000000000000009 23.500000000000004 5.5000000000000009 13.500000000000002 7.5000000000000009 6.0672668391739295 6.6086749342317344 34.500000000000007 6.1601513550935056 53.500000000000007 7.4024468732654141 40.500000000000007 7.0219748315251849 15.500000000000002 4.5000000000000009 1.5000000000000002 1.0000000180025095e-35 5.5000000000000009 30.500000000000004 7.7220132607635721
decision_type=2 2 2 2 2 2 2 2 2 2 2 2 2 2 2 2 2 2 2 2 2 2 2 2 2 2 2 2 2 2
left_child=11 2 7 4 5 -3 29 8 9 10 -2 16 20 19 -7 -13 24 -8 -9 -14 21 28 23 -23 -1 -12 27 -17 -5 -4
right_child=1 3 6 12 -6 14 17 18 -10 -11 25 15 13 -15 -16 26 -18 -19 -20 -21 -22 22 -24 -25 -26 -27 -28 -29 -30 -31
leaf_value=0.00089824245615016782 0.015667750884621173 -0.0046370037417960228 -0.006163721211816877 0.0025439558011270897 -0.007144106892306018 0.0005592794934092517 0.010055646140897578 -0.0041537202819884426 0.033187667443065179 -0.0046135799273926709 0 0.00037312542498017885 0.0005154379271898402 -0.0072993991324658393 -0.0026506314019670262 0.028468452155157743 0.01605859577788207 -0.00010054177994461838 0.014670422781646387 -0.0039168545977676045 0.0024773069612179332 0.0041811069914775489 -0.0016126609305864546 -0.0048933555357416284 0.01049289996846722 0.02708135708472284 0.006276047979558521 0 -0.0042206862910537501 -0.0023607092369068339
leaf_weight=287.89871304755798 772.81325624819146 6535.1161587081733 4229.2750470947649 431.97637161694001 5598.9037867294101 7195.695807337499 211.8477659538039 96.041099111549556 394.9360382676241 262.13066156022251 32.240673259249888 930.10418733791448 3120.4658788821253 870.07198585645529 4554.1146673765907 76.766637835709844 801.68958309735171 1718.5885082232999 96.737962652347051 1368.2101765022962 6539.1302754361532 2167.893156114209 1501.4747069380828 207.85353872127598 943.84019456425449 1523.2748129345127 996.86317923292518 33.112671987444628 1388.0512973344885 1756.495554342604
leaf_count=2711 7189 64866 53704 4632 53529 57910 2776 1489 2579 4138 253 9932 33582 9409 34938 619 6967 20058 1540 11517 59758 17363 12828 1775 8636 10828 9967 411 13885 22381
internal_value=0 -0.000631616 0.00347422 -0.00173505 -0.00329213 -0.00209927 -0.00359004 0.0210997 0.0220915 0.0202319 0.0231206 0.00815449 0.000367683 -0.0018974 -0.000668738 0.00460296 0.011584 0.000945408 0.00448941 -0.000795384 0.00137653 7.64468e-05 0.00134071 0.00329036 0.0084307 0.0266024 0.00795178 0.0200783 -0.00250184 -0.00508547
internal_weight=0 52573.3 11094.4 41479 23883.8 18284.9 7916.21 3178.17 2985.4 2590.46 2328.33 4070.28 17595.1 5358.75 11749.8 2036.85 2033.43 1930.44 192.779 4488.68 12236.4 5697.25 3877.22 2375.75 1231.74 1555.52 1106.74 109.879 1820.03 5985.77
internal_count=542170 502927 126935 375992 211243 157714 98919 28016 24987 22408 18270 39243 164749 54508 92848 20929 18314 22834 3029 45099 110241 50483 31966 19138 11347 11081 10997 1030 18517 76085
is_linear=0
shrinkage=0.05


Tree=21
num_leaves=31
num_cat=0
split_feature=0 1 5 0 6 2 3 1 2 1 5 3 3 2 4 1 3 2 1 3 3 0 0 2 0 4 2 3 1 3
split_gain=517.872 120.348 101.39 52.4559 43.3273 31.4304 22.0256 19.1632 16.8649 14.3448 21.4419 12.8345 12.0319 11.686 11.2234 14.361 9.74707 9.06952 8.91959 8.63548 7.98221 7.90441 7.67596 7.39837 7.23969 7.24997 7.04652 7.58876 6.95814 5.97446
threshold=1.0000000180025095e-35 26.500000000000004 1.5000000000000002 12.500000000000002 1.5000000000000002 7.5350293945362292 4.5000000000000009 23.500000000000004 7.1585136945237364 39.500000000000007 1.5000000000000002 9.5000000000000018 8.5000000000000018 4.7405652883788738 4.5000000000000009 53.500000000000007 8.5000000000000018 6.6086749342317344 41.500000000000007 7.5000000000000009 4.5000000000000009 14.500000000000002 4.5000000000000009 5.5965666693001079 17.500000000000004 4.5000000000000009 3.0201273556387074 5.5000000000000009 30.500000000000004 7.5000000000000009
decision_type=2 2 2 2 2 2 2 2 2 2 2 2 2 2 2 2 2 2 2 2 2 2 2 2 2 2 2 2 2 2
left_child=2 7 4 5 6 9 -1 17 24 13 16 12 18 -3 23 -16 -11 20 -6 -20 -2 22 -9 -12 25 -5 -24 -28 -15 -8
right_child=1 3 -4 8 11 -7 29 21 -10 10 14 -13 -14 28 15 -17 -18 -19 19 -21 -22 -23 26 -25 -26 -27 27 -29 -30 -31
leaf_value=-0.0066967050575287611 0 -0.0062596853048730878 0.0034583668316676207 -0.0043143181720816581 0.029007322032821661 0.0013316094507897518 0.018132442179543011 0 -0.0017685587395140298 -0.0061447965881152545 -0.00063256484759099409 0.010259647962719368 0.041216006532253498 0.00069255680138376489 -8.7724392143981718e-05 -0.0050103762763295187 -0.00020345264569636868 0.015067187547810001 0.021254656182647297 0 0.0096049252849734652 -0.0058589097927200708 -0.0076046754132476496 0.0020052915058129902 -0.0099921378779969025 -0.0083517867116105569 0.0019925945565238594 0.011443520846059745 -0.0033819815709675311 0.0085745415379689469
leaf_weight=125.89095190656371 272.02917742205318 3173.9588619985443 1245.735565228737 3619.9616594938561 792.59634816355538 8729.182075369783 541.2585585633642 594.92416244669585 2463.2057139879034 2948.5467035211623 7225.7475276242476 211.64790983381681 157.04110559658147 1325.472378660168 3389.8173831485328 2747.6715669867699 993.6798329326266 767.90806609304855 1135.6859122851747 54.479431997518986 924.66640255128732 187.7372209742316 59.335815454483964 4149.2376203185413 1495.7370522000419 1942.2048217162665 410.58135402790504 630.61010774568422 3903.3950533814495 423.64595075842226
leaf_count=2609 2518 33189 16509 32814 4590 88193 5951 6443 25258 36889 51765 2126 561 15241 33009 23331 11619 6499 7025 594 8291 2131 576 31137 14313 20782 3918 6268 41699 6322
internal_value=0 -0.00143621 0.0159029 -0.0021203 0.0203312 -0.00129281 0.0116125 0.00705232 -0.00544924 -0.00206693 -0.00136568 0.0242411 0.0254902 -0.00383081 -0.000601742 -0.0023275 -0.00470108 0.0105476 0.0239936 0.020327 0.00740557 0.00327276 0.0044227 0.000312759 -0.00670225 -0.00576938 0.00688343 0.00794828 -0.00231141 0.0142402
internal_weight=0 51955.6 4687.98 48107.8 3442.25 38586.7 1090.8 3847.79 9521.11 29857.5 21454.7 2351.45 2139.8 8402.83 17512.5 6137.49 3942.23 1964.6 1982.76 1190.17 1196.7 1883.19 1695.45 11375 7057.9 5562.17 1100.53 1041.19 5228.87 964.905
internal_count=542170 495883 46287 459239 29778 366072 14882 36644 93167 277879 187750 14896 12770 90129 139242 56340 48508 17308 12209 7619 10809 19336 17205 82902 67909 53596 10762 10186 56940 12273
is_linear=0
shrinkage=0.05


Tree=22
num_leaves=31
num_cat=0
split_feature=0 1 5 0 6 2 3 1 2 5 3 3 3 2 1 4 2 0 0 2 4 3 2 3 3 3 1 6 1 3
split_gain=485.959 114.096 92.7037 50.3614 38.8559 30.1427 20.6513 18.4124 16.3452 15.1214 15.2699 13.2643 11.2587 11.2192 9.35026 8.58793 8.43552 7.84653 7.01572 7.00021 5.89032 5.62208 5.55621 5.33833 28.7283 30.2649 6.35236 5.19032 5.12888 5.01361
threshold=1.0000000180025095e-35 26.500000000000004 1.5000000000000002 12.500000000000002 1.5000000000000002 5.5965666693001079 4.5000000000000009 20.500000000000004 6.0026509725338455 1.5000000000000002 5.5000000000000009 5.5000000000000009 9.5000000000000018 7.4413202177204436 39.500000000000007 4.5000000000000009 3.0201273556387074 4.5000000000000009 14.500000000000002 7.1678088870881282 3.5000000000000004 6.5000000000000009 7.1585136945237364 7.5000000000000009 8.5000000000000018 10.500000000000002 43.500000000000007 1.5000000000000002 30.500000000000004 9.5000000000000018
decision_type=2 2 2 2 2 2 2 2 2 2 2 2 2 2 2 2 2 2 2 2 2 2 2 2 2 2 2 2 2 2
left_child=2 7 4 5 6 -3 -1 18 -5 10 -7 22 -6 14 28 -10 -13 -12 -2 -16 21 -4 -9 26 -25 29 -8 -15 -11 -26
right_child=1 3 20 8 12 9 23 11 15 13 17 16 -14 27 19 -17 -18 -19 -20 -21 -22 -23 -24 24 25 -27 -28 -29 -30 -31
leaf_value=-0.006581762773034943 0.01748403623616402 -0.0028072119918133888 0.011756485848176953 -0.0071733452325900811 0.024248442228855777 -0.0063474853533683736 0.0090823623905403397 -0.00058582483468036062 -0.00073923073528948122 0.00061204893017027633 -0.00182820419657302 -0.0055237447195540463 0.0099136251421715546 0.0039893995622816043 0.001462945263352158 -0.0054894318828588888 0.0089256299423255466 0.0039004853252503019 0.0017778762909012745 -0.0024811629900464648 9.0551123345259592e-05 0.00045830489733714245 0.0056986250555544609 -0.0058208401138797466 0.0012897445633259766 0.0040849274078200853 0.022495326848566304 0.0010442338284889483 -0.0039924476547019442 0.047426871460617283
leaf_weight=125.05071571219014 502.56144768523518 17356.240431069047 303.12441130686784 5399.4760301574424 2194.1354113855632 1652.3087177027483 233.4296858679736 951.89426121555152 2298.879783169541 742.94801666605053 2399.4794204864884 85.023767635982949 213.83052052394487 2793.5759324604296 5543.9241184502316 1771.7924454791355 1705.9400894463761 779.46875864319736 118.87105827667983 1377.1038645771914 715.0317609779886 231.89506330853328 510.61418318666983 181.95385600917507 16.762768738204613 155.72144096525153 317.73273151664762 3764.2910771206953 2128.3985776078189 72.856073731323704
leaf_count=2609 4156 159192 3721 52480 12770 21973 2730 9202 21350 8223 29866 855 2126 27821 44817 19337 16558 8814 1126 11493 9902 2886 4747 3306 215 2389 3221 32334 21539 412
internal_value=0 -0.00140338 0.0152748 -0.00207303 0.0194428 -0.00126291 0.0111955 0.00682967 -0.00534503 0 -0.00245239 0.00520488 0.023093 0.000729385 -0.000324713 -0.00286213 0.00810828 -0.000354906 0.0148547 0.000647468 0.00336129 0.00730217 0.00149013 0.0137032 0.00829426 0.0194157 0.0173708 0.00233243 -0.00273309 0.0416225
internal_weight=0 51882.8 4761.52 48007.9 3511.47 38537.7 1103.51 3874.9 9470.15 21181.5 4831.26 3253.47 2407.97 16350.2 9792.37 4070.67 1790.96 3178.95 621.433 6921.03 1250.05 535.019 1462.51 978.457 427.294 245.34 551.162 6557.87 2871.35 89.6188
internal_count=542170 495883 46287 459239 29778 366072 14882 36644 93167 206880 60653 31362 14896 146227 86072 40687 17413 38680 5282 56310 16509 6607 13949 12273 6322 3016 5951 60155 29762 627
is_linear=0
shrinkage=0.05


Tree=23
num_leaves=31
num_cat=0
split_feature=1 0 5 0 2 2 2 1 5 3 3 3 0 3 1 2 3 1 1 2 5 2 4 3 3 0 4 1 0 2
split_gain=98.7954 452.549 83.1108 48.34 28.7857 16.3535 15.8853 15.0473 14.4103 14.6603 14.0691 15.1933 11.3804 12.6245 11.1301 10.6469 9.78418 8.90347 8.29748 13.0142 12.1698 7.47742 7.43375 63.4623 15.7071 7.10213 7.02548 7.63076 6.92118 6.66304
threshold=26.500000000000004 1.0000000180025095e-35 1.5000000000000002 12.500000000000002 5.5965666693001079 3.0201273556387074 7.1585136945237364 20.500000000000004 1.5000000000000002 5.5000000000000009 10.500000000000002 8.5000000000000018 1.0000000180025095e-35 5.5000000000000009 63.500000000000007 7.4413202177204436 5.5000000000000009 39.500000000000007 40.500000000000007 4.7405652883788738 1.5000000000000002 5.9776183370995293 1.5000000000000002 7.5000000000000009 4.5000000000000009 17.500000000000004 4.5000000000000009 39.500000000000007 14.500000000000002 7.1678088870881282
decision_type=2 2 2 2 2 2 2 2 2 2 2 2 2 2 2 2 2 2 2 2 2 2 2 2 2 2 2 2 2 2
left_child=5 2 10 4 18 -1 25 28 9 -6 11 22 16 -14 -13 17 -9 -10 19 -3 -20 -12 -2 24 -24 26 27 -5 -7 -19
right_child=1 3 -4 6 8 7 -8 12 15 -11 21 14 13 -15 -16 -17 -18 29 20 -21 -22 -23 23 -25 -26 -27 -28 -29 -30 -31
leaf_value=-0.0060281531694417467 0 -0.0062689828367872118 0.0028795049189525067 -0.007854959913385362 -0.006230334519400276 0.01810809391037467 -0.0016626417651979333 0.024057875294575704 -0.0026713195111818938 -0.00034463655926583671 -0.0049438497086876617 0.032195129219434723 0.0019905495594078966 0.0086269881933636813 0.0033261903789483342 0.0022701012210834411 0 0.0014245612039089357 -0.0055596657052911971 -0.00087016560835303451 -0.0012569652678948299 0.013084597813193644 0.013880725714738093 -0.0049253620282510837 0.023539168218761536 -0.0097506773827544663 -0.0081030918740690062 -0.0025232440664879545 0.002029563673670411 -0.0024259461036633526
leaf_weight=193.61679988674587 57.269844937894959 3408.307641810592 1195.7676458311034 1016.9028250970587 1641.8539271359041 502.42618518864037 2451.9097570391023 165.11634286312619 2863.3208572052536 3177.6116971433803 90.349030086828861 370.33135884604417 1393.5063587518525 1721.2348332063411 56.03011998522561 6572.9668228983646 76.21741187479347 5552.0404789679742 2019.5797252337798 1799.8932221625582 10079.805585104332 106.2411663546809 801.47354528063443 256.30597759207012 1635.3787814388052 1471.6650489336462 1913.2154092006676 2566.4632985762146 112.84674572007498 1373.6912877403083
leaf_count=1897 507 35747 15672 10575 21973 4122 25258 1407 29762 38680 1396 2185 13261 16558 394 60155 931 44817 25208 19558 78679 1633 7055 4018 10828 14313 20782 22239 1067 11493
internal_value=0 -0.000587835 0.0144286 -0.00202618 -0.00123312 0.00740596 -0.00524172 0.00812131 0 -0.00239772 0.0184479 0.0192713 0.00667011 0.00573388 0.0289854 0.000710996 0.0174127 -0.000316404 -0.00274533 -0.00444549 -0.00199467 0.00394192 0.0176182 0.0179963 0.0204967 -0.00646927 -0.00554227 -0.00410524 0.0155402 0.000630184
internal_weight=0 52478.4 4569.15 47909.2 38489.1 4164.96 9420.16 3971.35 21181.5 4819.47 3373.38 3176.79 3356.07 3114.74 426.361 16362 241.334 9789.05 17307.6 5208.2 12099.4 196.59 2750.43 2693.16 2436.85 6968.25 5496.58 3583.37 615.273 6925.73
internal_count=542170 502927 43688 459239 366072 39243 93167 37346 206880 60653 28016 24987 32157 29819 2579 146227 2338 86072 159192 55305 103887 3029 22408 21901 17883 67909 53596 32814 5189 56310
is_linear=0
shrinkage=0.05


Tree=24
num_leaves=31
num_cat=0
split_feature=0 1 5 0 2 2 3 6 3 3 1 3 4 5 1 5 3 4 2 1 2 0 1 0 4 1 1 5 4 1
split_gain=428.793 103.529 77.7662 49.6974 30.1653 17.1573 13.0598 25.9923 36.0482 12.6244 12.2622 11.6996 8.89438 8.23493 8.00982 10.7402 9.16514 7.15282 6.98682 6.91183 6.7819 6.73284 6.31748 6.0861 6.06017 5.80907 5.75146 5.59377 5.54767 5.40834
threshold=1.0000000180025095e-35 24.500000000000004 1.5000000000000002 12.500000000000002 5.9776183370995293 6.4907223831728951 10.500000000000002 1.5000000000000002 9.5000000000000018 4.5000000000000009 28.500000000000004 5.5000000000000009 5.5000000000000009 3.5000000000000004 40.500000000000007 1.5000000000000002 9.5000000000000018 1.5000000000000002 6.1601513550935056 21.500000000000004 4.7140145363037149 7.5000000000000009 53.500000000000007 17.500000000000004 5.5000000000000009 39.500000000000007 56.500000000000007 1.5000000000000002 3.5000000000000004 44.500000000000007
decision_type=2 2 2 2 2 2 2 2 2 2 2 2 2 2 2 2 2 2 2 2 2 2 2 2 2 2 2 2 2 2
left_child=2 11 6 4 14 23 7 8 -1 27 -11 19 13 29 16 -16 20 -13 -8 -2 -3 -17 -14 25 -7 -5 -9 -6 -4 -12
right_child=1 3 28 5 9 24 18 26 -10 10 12 17 22 -15 15 21 -18 -19 -20 -21 -22 -23 -24 -25 -26 -27 -28 -29 -30 -31
leaf_value=0.0077666709479833913 0.0090298691622407359 -0.0059855309898676282 0.0069793579479957976 -0.0085027475969776372 -0.005800167026661098 -0.00072424169916551014 -0.0040174087502826547 0.023075865728535871 0.042599572307965856 0.0060076817292657606 -0.001348037882609829 0.0056220759594794644 0 0.0033303153423375935 -0.004811102551102512 -2.3368883078388731e-05 0.0022299721139384175 0.014307634946194357 0.013143764609177386 0.00089082090660517913 -0.002377256830326328 -0.0025260907239635123 -0.0040483979250433323 -0.0099308572410665534 -0.0054748740373768631 -0.0044448858195353519 0.01542627525782321 -0.0010436014776090542 5.4992078627684187e-06 0.0014469191025940284
leaf_weight=896.61897623486584 483.93856950645568 3360.7497660384106 540.525208262261 1488.7483759402239 943.8703342123481 2445.7736602718069 98.486154374608304 1886.2914049584651 78.608846923918463 1097.3769305180176 2814.3533802365127 458.97755016759038 3099.7404480579135 3450.950478544808 2346.5379385639098 6803.1151353242458 512.48205572133884 928.51297723845346 102.24544388009235 695.09565434185788 2539.8473522777495 4619.8860496920242 1432.7054997392988 1314.0317262643366 992.85279932233971 3358.1839926374669 582.5071184632834 2197.357269873959 717.50622270209715 4356.6715996643179
leaf_count=12081 4028 34997 6607 16770 12777 24003 1517 10175 412 11813 29563 3985 34289 30143 29484 53543 5847 8280 1564 6395 27588 36056 13398 12911 10974 31057 4029 18766 9902 39216
internal_value=0 -0.00133954 0.014121 -0.00185428 -0.00106456 -0.00508581 0.0178272 0.0185694 0.0110816 0.000334641 0.000904794 0.00842191 0.000519299 0.00131976 -0.00241855 -0.0017111 -0.00390259 0.0116235 0.00392197 0.00443604 -0.00447123 -0.00105405 -0.00131165 -0.00668015 -0.00216288 -0.00574368 0.0214039 -0.00254677 0.00318353 0.000321882
internal_weight=0 51741.8 4902.79 49175.2 39575.6 9599.59 3644.76 3444.03 975.228 19393 16251.8 2566.52 15154.4 10622 20182.6 13769.5 6413.08 1387.49 200.732 1179.03 5900.6 11423 4532.45 6160.96 3438.63 4846.93 2468.8 3141.23 1258.03 7171.02
internal_count=542170 495883 46287 473195 377480 95715 29778 26697 12493 189965 158422 22688 146609 98922 187515 119083 68432 12265 3081 10423 62585 89599 47687 60738 34977 47827 14204 31543 16509 68779
is_linear=0
shrinkage=0.05


Tree=25
num_leaves=31
num_cat=0
split_feature=0 1 5 0 6 2 3 2 2 3 2 3 3 3 3 3 1 4 1 4 0 0 1 6 2 3 5 1 3 1
split_gain=403.043 98.2019 71.3276 44.5192 29.5094 26.8186 18.7247 14.9788 13.5853 12.7438 12.2351 11.6029 9.82377 9.46758 20.2921 12.6637 9.40939 10.3828 9.3445 8.0092 7.6058 8.76151 7.11106 6.32765 6.235 5.6411 6.54445 5.59276 5.12536 5.06532
threshold=1.0000000180025095e-35 26.500000000000004 1.5000000000000002 12.500000000000002 1.5000000000000002 7.5350293945362292 4.5000000000000009 6.0026509725338455 3.0201273556387074 5.5000000000000009 4.4829865921051741 4.5000000000000009 9.5000000000000018 8.5000000000000018 6.5000000000000009 4.5000000000000009 40.500000000000007 4.5000000000000009 21.500000000000004 4.5000000000000009 14.500000000000002 4.5000000000000009 56.500000000000007 1.5000000000000002 7.2506352600451018 8.5000000000000018 1.5000000000000002 46.500000000000007 7.5000000000000009 38.500000000000007
decision_type=2 2 2 2 2 2 2 2 2 2 2 2 2 2 2 2 2 2 2 2 2 2 2 2 2 2 2 2 2 2
left_child=2 8 4 5 6 10 -1 -5 -2 18 16 -12 13 14 15 27 -3 -18 23 -9 21 -11 -19 -10 -20 26 -13 -6 -16 -17
right_child=1 3 -4 7 12 -7 -8 19 9 20 11 25 -14 -15 28 29 17 22 24 -21 -22 -23 -24 -25 -26 -27 -28 -29 -30 -31
leaf_value=-0.0068562257572733105 -0.0062339127365139014 -0.0058643514577813591 0.0030998906433346261 -0.0068166773627530517 0.020696390055835158 0.0012365569765511626 0.01228122978573048 -0.00060576745285159401 0.018154136572079774 0.0036920684788687903 -0.0040258575792765693 -0.0036285874629800445 0.0082149779053260433 0.034378975499499781 0.011173362315101659 0.033420369859237672 -0.00087442376628364248 -0.0026824124573215789 -0.001277224569696137 -0.0052158725254764478 0.00064676105238291076 0.012726044048115932 -0.0088129631813139049 0.0044007142454443714 0.0062477722960962044 0.0014655714691370922 -0.000589187719989272 0.010265220513891317 -0.00089909922096464653 0.022233469544214516
leaf_weight=127.07486931496533 185.08680399623699 2804.5420320222911 1261.8210910850321 5292.412235246331 448.4739825600991 8761.0415264406183 1016.2346915350645 2286.1724051459169 151.19426754442975 425.94280818244442 3063.4629120807513 2123.2367692955304 225.20806950551923 176.04137649782933 237.00487172859721 322.44982771202922 4496.1052190164337 1398.203858932131 830.65964694842114 1746.9756270660437 256.22713592712535 1395.6173880667193 848.21052377732121 315.95847322791815 386.46511480771005 2566.9208742002374 12339.709339058696 368.28734660823829 91.047943181125447 697.39426859258674
leaf_count=2609 1809 29723 16509 52480 2671 88193 12273 21350 1268 4291 29650 26983 2126 561 1657 1215 33112 14752 8071 19337 2570 12409 9029 2577 3649 26230 108400 2785 926 2955
internal_value=0 -0.00130881 0.013587 -0.00193912 0.0170874 -0.00117928 0.00994956 -0.00504318 0.0062513 0.00692979 -0.00190022 -0.00118386 0.0201518 0.0211852 0.0199052 0.0220128 -0.00338486 -0.00231852 0.00348467 -0.00265813 0.00960395 0.0107467 -0.00510757 0.0094899 0.00097245 -0.000659338 -0.00105086 0.0163717 0.00728153 0.0261833
internal_weight=0 51674.1 4971.04 47727 3709.22 38401.4 1143.31 9325.56 3947.15 3762.06 29640.4 20093.3 2565.91 2340.7 2164.66 1836.61 9547.06 6742.52 1684.28 4033.15 2077.79 1821.56 2246.41 467.153 1217.12 17029.9 14462.9 816.761 328.053 1019.84
internal_count=542170 495883 46287 459239 29778 366072 14882 93167 36644 34835 277879 191263 14896 12770 12209 9626 86616 56893 15565 40687 19270 16700 23781 3845 11720 161613 135383 5456 2583 4170
is_linear=0
shrinkage=0.05


Tree=26
num_leaves=31
num_cat=0
split_feature=0 5 2 1 1 0 6 3 1 1 4 4 1 4 6 1 2 1 3 3 3 3 1 1 0 1 4 1 0 3
split_gain=379.193 65.644 53.1098 51.3001 43.8386 38.2005 26.8228 10.323 10.2109 9.99076 10.7653 10.0536 9.3695 9.02319 9.05346 9.01968 11.6278 9.83336 8.74511 8.11523 18.3686 8.05434 7.43027 7.18061 6.20712 6.11407 5.90361 7.15816 5.53727 5.50365
threshold=1.0000000180025095e-35 1.5000000000000002 6.703185102203908 26.500000000000004 22.500000000000004 12.500000000000002 1.5000000000000002 4.5000000000000009 26.500000000000004 40.500000000000007 1.5000000000000002 4.5000000000000009 53.500000000000007 4.5000000000000009 1.5000000000000002 54.500000000000007 6.7153826517152257 51.500000000000007 9.5000000000000018 8.5000000000000018 7.5000000000000009 9.5000000000000018 23.500000000000004 41.500000000000007 17.500000000000004 28.500000000000004 4.5000000000000009 39.500000000000007 4.5000000000000009 8.5000000000000018
decision_type=2 2 2 2 2 2 2 2 2 2 2 2 2 2 2 2 2 2 2 2 2 2 2 2 2 2 2 2 2 2
left_child=1 6 4 22 -2 7 -1 -6 -9 10 -10 -11 -13 14 -5 16 17 -15 19 20 23 -12 -4 -8 26 -23 27 -7 -24 -16
right_child=2 -3 3 13 5 24 18 8 9 11 21 12 -14 15 29 -17 -18 -19 -20 -21 -22 25 28 -25 -26 -27 -28 -29 -30 -31
leaf_value=0.009599845094319109 0.0078596454861248125 0.0030139565597302738 0.013104190247134684 0.0030188553788107197 -0.0044130882260068078 -0.0074662203384584271 0.02428889521330305 0.0035743184717964855 -0.0063824276378157199 2.9407122021284148e-05 -0.0026854325105119706 -0.00060681938854998459 -0.0047652248060310095 0.0058849114918846021 -0.00091336423146180757 -0.0038907669720993337 -0.00053393423179114543 0.044128516349599786 0.0079532760142697473 0.03245715828645318 -0.00087921352451957252 0.022300339336763116 0 0.016791005870221771 -0.0094250777841061641 0.0017334079059048912 -0.0078279770739402895 -0.0023080400779985004 0.0083765642245736665 0.0031202952334212835
leaf_weight=1154.9988527652458 977.2222097539925 1265.7386667591636 775.14768803003244 3676.9549829083262 3637.2012490472116 1062.3599249156541 857.80025737162214 918.8204626183142 2079.978636288899 8979.5139893961605 3797.5272488874907 2952.6434934922727 2714.7674521239242 144.91233618638944 4590.7870845881698 2240.6898429051507 5253.1288562978734 16.590384496579645 227.06576815416338 182.19873481290415 90.966118673910387 36.49079240456922 269.11862724483944 1258.2892015733523 1373.2102615345502 435.25546366508934 1737.7335752485669 2354.7107039885595 559.82603043731069 1022.9390236713225
leaf_count=14882 8242 16509 6243 35797 34660 11316 4258 9055 19638 67541 43068 31370 27815 1939 41648 20921 58630 210 2126 561 926 445 2782 7025 13674 5090 19460 20743 5283 10313
internal_value=0 0.0130843 -0.00127845 0.000854549 -0.00248135 -0.00280435 0.0163985 -0.00191984 -0.00149555 -0.00172813 -0.00339684 -0.000989749 -0.00263766 3.19812e-05 0.00109034 -0.00122618 -8.27763e-05 0.0127809 0.0192876 0.020253 0.0190487 -0.00188686 0.00937966 0.0199997 -0.00622978 0.00406573 -0.00532738 -0.00398295 0.00557147 -0.000139585
internal_weight=0 5037.06 51607.5 18550.1 33057.4 32080.2 3771.32 25552.2 21915 20996.2 6349.25 14646.9 5667.41 16946 9290.68 7655.32 5414.63 161.503 2616.32 2389.25 2207.06 4269.27 1604.09 2116.09 6528.01 471.746 5154.8 3417.07 828.945 5613.73
internal_count=542170 46287 495883 183766 312117 303875 29778 238682 204022 194967 68241 126726 59185 169458 87758 81700 60779 2149 14896 12770 12209 48603 14308 11283 65193 5535 51519 32059 8065 51961
is_linear=0
shrinkage=0.05


Tree=27
num_leaves=31
num_cat=0
split_feature=0 1 5 0 2 6 3 0 2 2 1 3 5 5 3 5 3 3 4 0 1 1 0 1 6 1 2 4 1 2
split_gain=356.68 89.077 60.418 44.3582 27.035 24.287 17.3925 12.3072 14.1403 11.9512 11.111 10.0709 8.73604 8.61285 10.9593 8.31649 8.23116 7.42638 6.68516 5.86512 5.81052 5.58601 9.70198 6.08903 5.42505 5.22098 5.64908 5.2013 5.19494 5.18846
threshold=1.0000000180025095e-35 24.500000000000004 1.5000000000000002 12.500000000000002 7.5350293945362292 1.5000000000000002 4.5000000000000009 17.500000000000004 6.0026509725338455 4.7140145363037149 40.500000000000007 5.5000000000000009 1.5000000000000002 1.5000000000000002 8.5000000000000018 1.5000000000000002 11.500000000000002 5.5000000000000009 5.5000000000000009 8.5000000000000018 21.500000000000004 27.500000000000004 7.5000000000000009 78.500000000000014 1.5000000000000002 36.500000000000007 7.1585136945237364 3.5000000000000004 78.500000000000014 7.3162131901006822
decision_type=2 2 2 2 2 2 2 2 2 2 2 2 2 2 2 2 2 2 2 2 2 2 2 2 2 2 2 2 2 2
left_child=2 11 5 4 9 6 -1 8 -5 10 -3 20 17 14 19 -12 28 -6 -10 -11 -2 -15 25 -24 -14 -23 -27 -4 -7 -13
right_child=1 3 27 7 12 16 -8 -9 18 13 15 29 24 21 -16 -17 -18 -19 -20 -21 -22 22 23 -25 -26 26 -28 -29 -30 -31
leaf_value=-0.0069027316323115144 0.0081436225411559253 -0.0053200173422440298 0.0065711856342210578 -0.0058062734851879617 -0.0049047076211335286 0.018987042095555195 0.01148378963901899 -0.0085005505527430674 0 -0.0052214844431970929 -0.0056713597455234225 0.0084349076034315861 0.0040336263708003611 0.0039527631680500988 0.0017805535420807623 -0.0011541598740276782 -0.0007353078626181433 0.00079417250685380632 -0.0047837018726374003 0.0049044813397142503 0.0007255988212087806 -0.00198505899174174 -0.0024572242874215974 0.0073429133203843245 0.0010419350902406775 0.0016705989482162311 -0.0022905056283761775 0 0 0.016693342973740106
leaf_weight=127.42399317456875 497.14747417153558 3592.8413565145747 547.64894994482165 4192.0305700469762 846.53248606590205 2613.2060411493294 1038.7160608504782 1896.1231638635509 2381.3108157341485 2610.0890828652773 1248.300876764697 1086.1600105903344 2810.3316276847036 688.37588242068887 809.05079311630107 6674.4216431074601 34.469838299322873 1601.3212557513616 998.26966475727386 125.17362298863009 699.63820940582082 1719.8085729890445 5773.9517400685581 146.24213724263245 3824.6968214852968 5963.9096845207969 1015.2168233647244 721.91035391954938 18.784474458661862 340.69146508752601
leaf_count=2609 4028 38234 6607 42228 11412 14135 12273 19266 23086 34169 15870 9428 27660 7042 9554 51287 580 19478 11135 1378 6395 18505 51130 919 32702 49546 8594 9902 181 2837
internal_value=0 -0.00124835 0.0126012 -0.00173348 -0.000989045 0.0157406 0.00927301 -0.00481106 -0.00385323 -0.00170777 -0.00298427 0.00770015 0.00139135 -0.000916544 -0.00314293 -0.0018958 0.0184603 -0.00110416 -0.00136414 -0.00467303 0.00400466 -0.000386699 -0.000606628 -0.00217241 0.00234233 0.000436974 0.00106393 0.00293066 0.0187889 0.0106232
internal_weight=0 51541.6 5102.16 48918 39450.3 3832.6 1166.14 9467.73 7571.61 30367.4 11515.6 2623.64 9082.88 18851.8 3544.31 7922.72 2666.46 2447.85 3379.58 2735.26 1196.79 15307.5 14619.1 5920.19 6635.03 8698.94 6979.13 1269.56 2631.99 1426.85
internal_count=542170 495883 46287 473195 377480 29778 14882 95715 76449 286228 105391 22688 91252 180837 45101 67157 14896 30890 34221 35547 10423 135736 128694 52049 60362 76645 58140 16509 14316 12265
is_linear=0
shrinkage=0.05


Tree=28
num_leaves=31
num_cat=0
split_feature=0 2 1 0 0 1 4 1 5 5 3 3 5 1 3 1 2 3 2 2 3 2 2 4 2 5 0 1 1 1
split_gain=335.257 49.1337 34.019 30.2902 15.6182 52.6508 13.68 11.1058 33.3046 18.9584 10.0388 8.7647 8.32708 7.48942 6.91161 6.77992 6.34179 5.79217 6.34462 5.10593 4.63291 5.52626 4.52452 4.27993 4.28388 4.18901 4.08913 8.57995 4.02568 3.91678
